{"fc1_weight": [[0.13433916866779327, -0.22419191896915436, -0.0714225322008133, -0.16544654965400696, -0.024004975333809853, -0.288862019777298, 0.18754185736179352, 0.26348307728767395, 0.227422833442688, 0.16283661127090454, -0.15617084503173828, -0.06885550916194916, -0.09500160068273544, -0.17287954688072205, -0.22603942453861237, 0.16575127840042114, -0.08761699497699738, -0.037533145397901535, 0.03987198323011398, 0.029004650190472603, 0.11094904690980911, -0.2800676226615906, 0.13077300786972046, 0.05619936063885689, 0.07369688898324966], [-0.037928976118564606, 0.12232818454504013, 0.16730619966983795, 0.16961035132408142, -0.14200396835803986, -0.10553788393735886, 0.004268755204975605, -0.024258049204945564, 0.1718989759683609, -0.1902109980583191, -0.03161202743649483, -0.12154053896665573, 0.004286604002118111, -0.012990755960345268, -0.34329402446746826, -0.11507630348205566, 0.18142688274383545, 0.0645357146859169, 0.022830793634057045, -0.06445733457803726, 0.0935225561261177, -0.14215466380119324, 0.093684621155262, -0.035783421248197556, 0.007761482149362564], [-0.16638854146003723, -0.017671475186944008, 0.11730077117681503, 0.04702754691243172, 0.035586196929216385, 0.039879199117422104, -0.03868133947253227, 0.22929272055625916, -0.10276980698108673, 0.11693640798330307, -0.1624118983745575, 0.1974823921918869, 0.0007995947962626815, -0.1301109790802002, -0.1687794029712677, -0.17835848033428192, 0.06157664209604263, 0.011791645549237728, -0.06133389100432396, 0.03653363510966301, 0.06221577525138855, 0.32001793384552, -0.23943425714969635, -0.2595461905002594, -0.2737741470336914], [-0.09663210064172745, 0.015763379633426666, -0.16625083982944489, 0.19032543897628784, -0.040288977324962616, 0.0909179151058197, 0.15120434761047363, 0.1014179065823555, 0.03189440071582794, -0.22985976934432983, -0.18699386715888977, 0.0009610507404431701, 0.13137033581733704, -0.256163626909256, 0.10133908689022064, -0.05432112142443657, 0.050677817314863205, -0.09423955529928207, -0.42854228615760803, -0.1403721123933792, 0.10950431227684021, -0.1417408287525177, 0.12086772918701172, 0.05659690126776695, 0.01761036552488804], [0.07756070792675018, -0.22744646668434143, 0.11028055846691132, 0.006002999842166901, -0.11157447099685669, 0.15595673024654388, 0.24010616540908813, 0.05619439110159874, 0.08137650787830353, 0.03624117001891136, 0.05396321415901184, 0.02365671470761299, -0.17687870562076569, -0.062319137156009674, -0.06501130014657974, 0.049299780279397964, 0.001508592627942562, 0.043244123458862305, 0.1383795142173767, 0.24661798775196075, -0.08047305047512054, -0.030823945999145508, 0.10977891087532043, 0.16194820404052734, -0.18605679273605347], [-0.1629985123872757, -0.13888444006443024, -0.0460369735956192, 0.1948607861995697, -0.03749483451247215, -0.15604037046432495, 0.058136459439992905, 0.16344702243804932, 0.1433759480714798, 0.07848115265369415, -0.18318937718868256, -0.07456237077713013, 0.016050558537244797, -0.018884258344769478, -0.01007764134556055, -0.17510183155536652, 0.06227843835949898, 0.045775171369314194, 0.10007824748754501, 0.019273245707154274, -0.20742560923099518, -0.06108655035495758, -0.03689158335328102, -0.017408398911356926, 0.19215741753578186], [-0.0690281093120575, 0.1472955197095871, 0.0845884457230568, 0.11765912920236588, -0.10913626104593277, -0.04462430626153946, 0.1691375970840454, -0.12709523737430573, 0.1497698277235031, -0.046798210591077805, -0.20872581005096436, -0.034656889736652374, -0.17897529900074005, -0.07710181176662445, 0.028138112276792526, -0.0688517764210701, 0.13825245201587677, -0.005489198025316, -0.16756409406661987, -0.018102429807186127, 0.0020706236828118563, 0.15088285505771637, -0.09915218502283096, 0.07027540355920792, 0.08724459260702133], [-0.05751996114850044, -0.07405487447977066, -0.1645136922597885, 0.06149733066558838, 0.09302575886249542, 0.18104834854602814, 0.19606603682041168, 0.12108348309993744, 0.19054730236530304, -0.1837792545557022, -0.10582534968852997, 0.1046532392501831, 0.24736712872982025, 0.009772677905857563, 0.1336313635110855, -0.059202589094638824, 0.22229072451591492, 0.09040426462888718, -0.19687087833881378, 0.19748561084270477, 0.1542951911687851, -0.2770121395587921, -0.053321655839681625, 0.11224544048309326, -0.08932967483997345], [0.20203755795955658, -0.07497371733188629, -0.016690880060195923, 0.013007217086851597, -0.08051023632287979, 0.21291084587574005, -0.011697312816977501, 0.11256850510835648, -0.14368288218975067, 0.031055286526679993, 0.08829830586910248, 0.11085592210292816, -0.050158098340034485, 0.24355393648147583, -0.35124099254608154, 0.10404716432094574, -0.13540427386760712, 0.06833496689796448, 0.03171175345778465, -0.272586852312088, -0.04561494663357735, -0.06496769189834595, 0.10932432860136032, 0.0018637680914252996, -0.09990735352039337], [-0.20780275762081146, -0.21128664910793304, -0.20713630318641663, -0.49362868070602417, -0.08560194075107574, -0.08202244341373444, -0.019888758659362793, 0.35224151611328125, 0.11517255008220673, 0.0690845251083374, -0.056073516607284546, 0.07021315395832062, 0.035292092710733414, -0.07455553859472275, -0.13473853468894958, -0.16924211382865906, -0.04587380588054657, 0.020239902660250664, -0.21110805869102478, -0.1487301141023636, -0.09580016136169434, -0.15423084795475006, -0.09739138185977936, -0.16896511614322662, -0.21919390559196472], [0.056149374693632126, 0.02029445394873619, 0.07640334218740463, -0.10461580008268356, -0.0808250829577446, 0.1529218703508377, 0.10131967067718506, -0.0018254983006045222, -0.1450130045413971, 0.10648811608552933, 0.08480413258075714, -0.1652582436800003, -0.012679488398134708, -0.037414632737636566, 0.0675974041223526, 0.04549838602542877, 0.061453480273485184, -0.15040935575962067, 0.04227353259921074, -0.12924596667289734, 0.09974052757024765, 0.17737364768981934, -0.011105995625257492, 0.1475537121295929, 0.00016140498337335885], [0.05802314728498459, -0.17532940208911896, -0.10994894057512283, 0.1893271952867508, 0.20009557902812958, -0.23038053512573242, -0.20419077575206757, -0.04264333099126816, -0.24671539664268494, 0.14903119206428528, 0.2502630650997162, -0.15216763317584991, -0.0447176992893219, 0.12668892741203308, -0.1486026793718338, -0.12796592712402344, -0.42312270402908325, -0.27573955059051514, -0.18120160698890686, 0.027985284104943275, 0.08498042076826096, -0.1280599683523178, 0.08349107950925827, 0.012899677269160748, -0.15724438428878784], [-0.2031845897436142, 0.15376655757427216, 0.23325473070144653, -0.06681685894727707, -0.19781829416751862, 0.0992586612701416, -0.05822000280022621, 0.1853005737066269, 0.061391398310661316, 0.08659431338310242, 0.05866362527012825, 0.16612717509269714, -0.001623988733626902, -0.1292470544576645, -0.36386147141456604, -0.08680754154920578, -0.16427132487297058, 0.13522689044475555, -0.01674570143222809, -0.05308554321527481, -0.1173546314239502, -0.126026913523674, 0.015279493294656277, 0.16018491983413696, -0.3468656837940216], [0.03348254784941673, 0.014547229744493961, 0.0756811648607254, -0.07948993146419525, 0.13549187779426575, 0.11078029870986938, -0.16375726461410522, 0.04399621859192848, 0.1055903211236, -0.07090329378843307, -0.24108479917049408, -0.0695355236530304, 0.026846902444958687, 0.10564269870519638, -0.18709374964237213, -0.11150293052196503, -0.3990360200405121, 0.15206226706504822, 0.06350457668304443, 0.05850084125995636, 0.0229389276355505, -0.001976987114176154, 0.2818281352519989, -0.14526021480560303, -0.0887284204363823], [0.10274028033018112, 0.07278933376073837, 0.026508145034313202, 0.02518754079937935, -0.1611260324716568, 0.20878423750400543, 0.09304147958755493, 0.0163209680467844, 0.033762965351343155, -0.1580536812543869, 0.06358053535223007, 0.05281131714582443, 0.1874247044324875, -0.11497065424919128, 0.04896378889679909, -0.08965612947940826, 0.04446370527148247, -0.0001366474461974576, -0.24444101750850677, 0.15483969449996948, -0.03681012615561485, 0.020024187862873077, 0.02888982743024826, -0.16306394338607788, -0.07560074329376221], [-0.15135882794857025, 0.1806972771883011, -0.03185701370239258, -0.11923165619373322, -0.06028665229678154, -0.16057176887989044, 0.0833946093916893, -0.02598528191447258, -0.5047668814659119, 0.10171730071306229, 0.0290312971919775, 0.09665228426456451, -0.17154660820960999, -0.27377504110336304, -0.08177050948143005, -0.01244234200567007, -0.030405746772885323, 0.22432340681552887, -0.12243659794330597, -0.03846295177936554, 0.029106764122843742, -0.1622229516506195, 0.08974112570285797, 0.22527621686458588, -0.1208692118525505], [0.12994764745235443, 0.06970614194869995, 0.06698071211576462, -0.0014276450965553522, 0.18272283673286438, 0.008145660161972046, 0.007982372306287289, 0.03954562544822693, 0.1687091588973999, -0.08310183137655258, -0.00016153475735336542, -0.06296783685684204, -0.22533833980560303, -0.21273115277290344, 0.05925916135311127, -0.03698904439806938, 0.16738881170749664, -0.3823827803134918, -0.027579709887504578, -0.046686138957738876, 0.05157390609383583, 0.18802089989185333, -0.0887257382273674, -0.17023307085037231, -0.11188293993473053], [0.09895473718643188, 0.10702480375766754, -0.20097514986991882, -0.18134146928787231, -0.1022009328007698, -0.009428874589502811, -0.22741125524044037, 0.0029628186021000147, -0.3383016884326935, -0.1352030336856842, 0.14316606521606445, -0.2516879439353943, -0.08859054744243622, -0.22396427392959595, 0.10516618937253952, -0.18352174758911133, -0.13357266783714294, -0.16283375024795532, -0.2764172852039337, -0.200663760304451, 0.11567898839712143, 0.1656840592622757, 0.05639125034213066, -0.05399252846837044, -0.15890243649482727], [0.055354394018650055, -0.14435026049613953, -0.24589292705059052, -0.25134947896003723, -0.1408020406961441, 0.07466380298137665, -0.09118004888296127, 0.08480292558670044, 0.06414239853620529, -0.11808833479881287, -0.0432242751121521, 0.11248783022165298, 0.001982116838917136, 0.21090959012508392, 0.005334028974175453, 0.017365407198667526, -0.16267907619476318, 0.1331191509962082, 0.2127632349729538, 0.06252865493297577, 0.21564921736717224, 0.20484554767608643, 0.08557955920696259, 0.10055761784315109, 0.09574462473392487], [0.11664922535419464, -0.03755682334303856, -0.00548584433272481, -0.07100749015808105, 0.015010066330432892, -0.13128876686096191, -0.2790372669696808, -0.052295081317424774, 0.22151592373847961, 0.15531224012374878, 0.12368293851613998, -0.3287379741668701, 0.003507880726829171, 0.12181466817855835, 0.04068257659673691, 0.12363062053918839, -0.17176949977874756, -0.2747231423854828, 0.14443662762641907, -0.07707490772008896, -0.13329540193080902, 0.14861594140529633, -0.18795400857925415, 0.09103646874427795, -0.10658898204565048], [-0.09989684075117111, -0.060221899300813675, 0.18355068564414978, -0.16577845811843872, -0.013398193754255772, 0.022844841703772545, 0.1536485105752945, -0.0744854286313057, 0.21999910473823547, 0.08395950496196747, -0.17105630040168762, 0.009594987146556377, -0.17171749472618103, -0.2130480706691742, -0.10175039619207382, 0.06129038333892822, -0.21143844723701477, -0.17577911913394928, -0.24792344868183136, 0.05496455356478691, -0.15270459651947021, -0.10398592054843903, 0.10413551330566406, -0.017693279311060905, -0.32595402002334595], [-0.039657577872276306, -0.1524009108543396, 0.2442467361688614, -0.127691850066185, 0.18066835403442383, 0.21263821423053741, 0.028088653460144997, 0.011238520964980125, -0.32807376980781555, -0.05185507982969284, -0.1800745725631714, -0.10684836655855179, -0.09336809068918228, -0.2608208954334259, 0.04130011796951294, 0.23006005585193634, 0.17734020948410034, -0.06859509646892548, 0.13681206107139587, 0.20253439247608185, 0.09320671856403351, -0.05067884549498558, -0.13274097442626953, -0.16151946783065796, -0.2038104385137558], [-0.19799576699733734, -0.010728203691542149, -0.16741986572742462, -0.23415900766849518, 0.12007951736450195, 0.056098394095897675, 0.08483608067035675, 0.2384270578622818, -0.01718035899102688, 0.07048427313566208, -0.007866276428103447, -0.02360076829791069, 0.07197835296392441, 0.20763066411018372, -0.015536951832473278, 0.16519054770469666, -0.02625398524105549, -0.24674861133098602, -0.2722960412502289, -0.19694137573242188, 0.01979019120335579, -0.39344632625579834, 0.00973957497626543, -0.11944101005792618, -0.18503589928150177], [-0.26790815591812134, -0.02206684648990631, -0.028400469571352005, 0.024187250062823296, -0.15468987822532654, 0.03312421217560768, 0.1002955287694931, 0.16218462586402893, -0.16980047523975372, 0.19341669976711273, 0.156655952334404, 0.08818450570106506, 0.026843857020139694, -0.07724200934171677, 0.07264892011880875, -0.1315719038248062, -0.19736874103546143, 0.04162226617336273, 0.07987751066684723, 0.07307549566030502, 0.13392136991024017, -0.1252288669347763, 0.1859540343284607, 0.1365172266960144, -0.15030333399772644], [0.20224523544311523, 0.008695889264345169, 0.19228495657444, 0.10166745632886887, -0.16436566412448883, -0.061541736125946045, -0.08951913565397263, 0.0986584946513176, 0.1305079162120819, -0.24268625676631927, 0.043390993028879166, -0.06135905534029007, 0.16499000787734985, 0.029660478234291077, -0.3512990474700928, -0.08560609817504883, 0.00379144842736423, 0.05020881071686745, 0.12780927121639252, -0.05042038485407829, 0.16255708038806915, -0.11401216685771942, 0.09921833127737045, -0.08784259855747223, -0.030104583129286766], [-0.07824478298425674, -0.012482522055506706, 0.031375572085380554, 0.019996637478470802, -0.22287873923778534, -0.07171197980642319, -0.17593061923980713, 0.2507501542568207, 0.2710087299346924, -0.12016016989946365, 0.09595146030187607, 0.15548932552337646, -0.30042001605033875, -0.14567770063877106, 0.08070329576730728, 0.161708265542984, -0.11517412215471268, 0.14049072563648224, -0.14931046962738037, -0.06321609765291214, -0.2390943020582199, -0.18099230527877808, 0.11275055259466171, 0.028746122494339943, -0.2160504162311554], [0.13960886001586914, 0.13917125761508942, 0.0971941277384758, 0.17798084020614624, 0.08222375810146332, 0.03397725895047188, -0.13233254849910736, -0.27301913499832153, 0.17532910406589508, 0.09204723685979843, 0.01894211396574974, -0.04905078560113907, 0.14035949110984802, 0.17261911928653717, 0.16460387408733368, 0.1052359864115715, -0.08444295823574066, 0.15793532133102417, 0.06243051961064339, 0.008670249953866005, -0.11653993278741837, 0.013385770842432976, -0.0977933406829834, 0.08361245691776276, -0.13984335958957672], [-0.3042861819267273, 0.06090657785534859, 0.0932779386639595, -0.08019813895225525, -0.16226826608181, 0.15838976204395294, -0.24967187643051147, -0.005842122249305248, 0.17049896717071533, 0.10202408581972122, -0.033977359533309937, 0.004343955311924219, 0.21829965710639954, -0.08677297830581665, -0.055542148649692535, -0.11578743904829025, -0.030993757769465446, -0.3355741798877716, 0.027775218710303307, -0.006415300536900759, -0.045549504458904266, -0.05351834371685982, 0.17217235267162323, 0.2300151288509369, 0.10104815661907196], [-0.13635745644569397, 0.1813918501138687, 0.08814851939678192, 0.13928435742855072, -0.20552724599838257, -0.1503572314977646, 0.2712480127811432, 0.05185207352042198, -0.15655574202537537, 0.10885568708181381, -0.22270771861076355, -0.21136952936649323, 0.14574183523654938, 0.2286248356103897, 0.08342348039150238, 0.1261528879404068, -0.2179323434829712, 0.1972510665655136, 0.21293900907039642, 0.005813721567392349, -0.19592158496379852, 0.1190662607550621, 0.15526752173900604, -0.08683916926383972, 0.006344957277178764], [0.04299971088767052, 0.03935827687382698, 0.01501344982534647, -0.09177722781896591, 0.13940204679965973, -0.04175499826669693, 0.08667505532503128, 0.010678207501769066, 0.061692409217357635, 0.05794546753168106, -0.2719677686691284, 0.17424476146697998, 0.09604597836732864, -0.17038829624652863, -0.01776967942714691, 0.11391738057136536, 0.004575127270072699, 0.19024401903152466, 0.1050923764705658, -0.10623206198215485, 0.14732326567173004, 0.2057809829711914, 0.08841177076101303, -0.17394672334194183, 0.1707531064748764], [-0.03196754679083824, 0.17133605480194092, -0.1672075390815735, -0.2497847080230713, -0.12174851447343826, 0.16667602956295013, 0.08429765701293945, -0.07942187786102295, 0.15447722375392914, -0.14772115647792816, 0.09279761463403702, -0.01534364651888609, 0.017576919868588448, -0.4608515501022339, -0.21637555956840515, 0.08859658241271973, -0.0059923832304775715, 0.18356038630008698, -0.15007558465003967, -0.08247917890548706, -0.06753799319267273, -0.009888206608593464, -0.19741597771644592, -0.24261583387851715, 0.0892639234662056], [-0.1707071214914322, 0.034612204879522324, -0.1886562705039978, -0.11747454851865768, 0.036462217569351196, 0.094634510576725, 0.16105182468891144, 0.07416073977947235, 0.12630975246429443, 0.08748596161603928, 0.003065218450501561, 0.032817427068948746, 0.07324051856994629, -0.12787795066833496, 0.13862495124340057, 0.05952505022287369, 0.0817471444606781, 0.14373306930065155, 0.07258407771587372, 0.1372731328010559, 0.0714038535952568, -0.26181215047836304, -0.1953478902578354, -0.17409762740135193, 0.021570421755313873], [-0.07742798328399658, 0.22602050006389618, 0.06553575396537781, -0.05257917940616608, -0.06972780078649521, 0.05554892495274544, -0.15160836279392242, -0.12140592932701111, 0.08896296471357346, -0.0709664523601532, 0.2076130211353302, -0.0390285886824131, -0.12338505685329437, -0.07314210385084152, 0.15637989342212677, -0.10948503017425537, 0.1676347851753235, -0.5991447567939758, -0.0563802495598793, 0.17487500607967377, 0.06588674336671829, -0.219364196062088, -0.10489746183156967, 0.12538647651672363, -0.1694018393754959], [0.11241321265697479, -0.15931232273578644, -0.009542107582092285, -0.05184388905763626, 0.03497840091586113, 0.1169668510556221, -0.051591891795396805, -0.021515732631087303, -0.03961248695850372, 0.20380522310733795, -0.13102078437805176, -0.08384310454130173, -0.13538764417171478, 0.06403837352991104, 0.12397913634777069, -0.013884644024074078, 0.12427608668804169, -0.1558656394481659, -0.1831112653017044, 0.003298043506219983, 0.1111513301730156, 0.10851916670799255, 0.2846700847148895, -0.11924798041582108, 0.1346808820962906], [-0.15341509878635406, 0.2050357609987259, -0.3107578754425049, -0.24871402978897095, 0.02301032654941082, 0.17151503264904022, 0.07342620193958282, 0.16713108122348785, 0.00597878685221076, -0.08783574402332306, 0.1287449449300766, -0.019857626408338547, -0.1352720856666565, -0.10583340376615524, 0.08633255958557129, 0.07322719693183899, 0.0012347530573606491, 0.025272225961089134, 0.16286468505859375, 0.05120369419455528, -0.15588325262069702, 0.036275699734687805, 0.007412712089717388, -0.1914009302854538, -0.1252702921628952], [-0.18120360374450684, 0.11672962456941605, -0.0474967285990715, -0.08824333548545837, 0.18878354132175446, 0.09741665422916412, -0.22388796508312225, -0.2341178059577942, -0.13509924709796906, -0.15773367881774902, -0.046680375933647156, 0.037305332720279694, 0.08993785828351974, -0.061898522078990936, 0.15557818114757538, -0.13203859329223633, 0.1982007622718811, 0.31763413548469543, 0.14443083107471466, -0.12583646178245544, 0.08288050442934036, 0.08714529126882553, 0.13012342154979706, -0.09888188540935516, -0.0998082235455513], [0.04684678837656975, 0.0228932723402977, -0.031544335186481476, 0.07104029506444931, -0.1378633677959442, -0.1180957481265068, -0.19474449753761292, -0.002933763200417161, -0.28588053584098816, 0.22026512026786804, 0.11959239840507507, 0.0025639072991907597, 0.12746572494506836, 0.23910166323184967, -0.15533369779586792, 0.1844029426574707, -0.004352927673608065, -0.05357843264937401, -0.4202609062194824, 0.11539018154144287, 0.08712377399206161, -0.08096202462911606, 0.044478945434093475, -0.26182296872138977, -0.06669080257415771], [0.0494677908718586, 0.047331131994724274, 0.02704794518649578, 0.14585620164871216, -0.02983759343624115, -0.035650547593832016, 0.13788746297359467, -0.026457473635673523, -0.07285017520189285, 0.1309342086315155, 0.000672232243232429, 0.08470235019922256, 0.14267145097255707, -0.04121620953083038, 0.16806353628635406, 0.12716545164585114, -0.14839598536491394, -0.27149060368537903, -0.3452192544937134, -0.02640676312148571, 0.027785256505012512, 0.12050676345825195, -0.16483770310878754, -0.012756249867379665, -0.12367398291826248], [-0.18866382539272308, 0.2471027672290802, -0.3305170238018036, 0.2397199124097824, 0.03093770705163479, -0.10522883385419846, -0.08145003020763397, 0.19401977956295013, -0.04497286304831505, -0.2588193118572235, 0.1662515550851822, -0.01574750989675522, -0.04190032556653023, 0.2211478054523468, -0.18550443649291992, -0.00412306934595108, -0.18106691539287567, -0.2542093098163605, -0.1417347639799118, 0.09549041837453842, -0.11145710945129395, 0.0010464058723300695, -0.1045929417014122, 0.14787040650844574, 0.10994987189769745], [0.15835878252983093, -0.2629205882549286, -0.04634954407811165, -0.2552102208137512, -0.25574806332588196, -0.03541732206940651, 0.1120716854929924, -0.08975528180599213, -0.33027365803718567, -0.18072368204593658, 0.16332852840423584, 0.026537401601672173, -0.11619850993156433, 0.04263730347156525, -0.048242341727018356, 0.14583157002925873, -0.11878901720046997, -0.12946359813213348, 0.0787559375166893, 0.08102286607027054, 0.004700542893260717, -0.0711212307214737, 0.0801146924495697, 0.000447585538495332, -0.14785948395729065], [-0.004492095671594143, 0.20477865636348724, -0.07283002138137817, 0.147076815366745, -0.08825492113828659, -0.2989991307258606, 0.10034557431936264, -0.1481948345899582, 0.08390319347381592, 0.10789388418197632, -0.2389412671327591, 0.1443205326795578, 0.010182486847043037, 0.14938969910144806, 0.11327030509710312, -0.13671216368675232, 0.07496881484985352, 0.14335505664348602, -0.06928075850009918, -0.0891275554895401, -0.02795744687318802, -0.17303875088691711, -0.059676337987184525, 0.19814015924930573, 0.12745548784732819], [-0.13174603879451752, 0.0861145406961441, -0.12301740795373917, 0.04054882004857063, -0.12059307098388672, 0.013540375046432018, -0.2368525266647339, 0.02997913770377636, 0.11740134656429291, 0.09248649328947067, 0.14040137827396393, -0.061853278428316116, 0.08146350830793381, -0.16058264672756195, -0.03461423143744469, -0.1450524926185608, -0.2360936403274536, 0.16914933919906616, -0.13088293373584747, 0.1681564897298813, 0.03716430813074112, 0.12683455646038055, 0.07902969419956207, 0.04181721433997154, 0.1439635455608368], [-0.03860129788517952, 0.16984957456588745, -0.10625258833169937, 0.016632093116641045, 0.08941267430782318, 0.13454487919807434, -0.06615369021892548, -0.17814543843269348, 0.14178025722503662, -0.16482532024383545, -0.02657444402575493, 0.059822581708431244, -0.03661367669701576, -0.3124374747276306, -0.003280910663306713, 0.0767219290137291, 0.0007196767837740481, -0.43162599205970764, -0.24115252494812012, -0.13337449729442596, 0.08265072852373123, 0.0071210660971701145, -0.11383883655071259, -0.0068575856275856495, -0.08382584899663925], [-0.030474813655018806, 0.02328990399837494, -0.05828506126999855, -0.022639809176325798, -0.19689233601093292, 0.10233700275421143, -0.056458186358213425, 0.19879068434238434, -0.13081961870193481, 0.21797162294387817, -0.08201448619365692, 0.005829554982483387, -0.10585636645555496, -0.033916302025318146, -0.20365992188453674, -0.13265976309776306, 0.11220576614141464, -0.2616768479347229, 0.12975962460041046, -0.30209505558013916, -0.1553691327571869, -0.3389110863208771, -0.36291757225990295, 0.09917329996824265, 0.059771355241537094], [0.031124331057071686, -0.27724143862724304, -0.10378586500883102, 0.1622469574213028, -0.010351389646530151, -0.08893892168998718, 0.032461248338222504, 0.15936802327632904, -0.14918379485607147, -0.1109025850892067, 0.11109240353107452, -0.031856171786785126, 0.10993315279483795, 0.12032803148031235, 0.14345033466815948, -0.0563126876950264, 0.21685220301151276, 0.1410970240831375, 0.14972230792045593, -0.11109811812639236, 0.013018451631069183, -0.4147855043411255, 0.16318342089653015, -0.0007206553127616644, -0.09494400024414062], [-0.13441011309623718, 0.10491619259119034, 0.016231801360845566, -0.24993306398391724, -0.10999144613742828, 0.13057251274585724, 0.04636567458510399, -0.19490505754947662, -0.2789435386657715, -0.026106128469109535, -0.10720764100551605, 0.24823184311389923, -0.11340765655040741, -0.4071028530597687, -0.02540942281484604, -0.14689812064170837, 0.1799403429031372, 0.04430481046438217, 0.09370289742946625, 0.18477380275726318, 0.21387150883674622, 0.09617612510919571, -0.07712625712156296, 0.02270692028105259, -0.14971858263015747], [0.09024596959352493, -0.12408379465341568, -0.04474452883005142, 0.1163167804479599, -0.021051064133644104, 0.15028880536556244, 0.22264620661735535, -0.17491210997104645, -0.1669102907180786, -0.22370976209640503, -0.18378478288650513, 0.1605200320482254, 0.15796521306037903, 0.11731822788715363, -0.17774063348770142, 0.08793006837368011, -0.07899758964776993, 0.13548575341701508, 0.17935249209403992, 0.1051681861281395, 0.08439578115940094, 0.18712852895259857, 0.04423006623983383, 0.16705286502838135, 0.16352421045303345], [-0.21037834882736206, -0.018296368420124054, -0.11741258203983307, -0.13859331607818604, 0.2410668283700943, -0.01711221970617771, 0.18678617477416992, -0.08145920187234879, 0.25051242113113403, -0.023433830589056015, 0.21472729742527008, 0.040889713913202286, 0.12355361133813858, 0.17809627950191498, -0.16922329366207123, -0.038258448243141174, -0.10435941815376282, 0.05947105959057808, 0.07616619020700455, 0.015319250524044037, 0.21237397193908691, -0.05497513338923454, -0.16518740355968475, -0.08825597912073135, 0.07743897289037704], [0.05333579704165459, 0.15490339696407318, -0.09473413974046707, -0.08409600704908371, 0.0819358378648758, -0.12123359739780426, 0.04070145636796951, 0.15828455984592438, -0.16283470392227173, -0.12433889508247375, 0.08870832622051239, -0.010429663583636284, -0.0968799740076065, -0.1669289618730545, 0.09466269612312317, -0.08299349993467331, -0.16173523664474487, 0.036188755184412, 0.10197661817073822, 0.020186882466077805, 0.09987764805555344, 0.11846534162759781, 0.01585868000984192, 0.13344712555408478, 0.1586305797100067], [0.0053934273310005665, 0.0559622198343277, 0.17587494850158691, -0.06393541395664215, 0.14481963217258453, -0.25694113969802856, 0.18337436020374298, -0.1506626307964325, -0.07711665332317352, 0.07533212751150131, -0.03375690430402756, 0.09229689091444016, 0.15034492313861847, -0.025544555857777596, -0.014433801174163818, -0.3210413157939911, -0.06720850616693497, -0.2351725846529007, -0.23790621757507324, 0.2036912441253662, -0.08508652448654175, -0.006748121231794357, 0.004958671983331442, -0.14540044963359833, -0.014852991327643394], [-0.03716522082686424, 0.18009726703166962, -0.03797147795557976, -0.10501018166542053, 0.05916563421487808, -0.11188876628875732, 0.21251845359802246, 0.26157888770103455, 0.18969407677650452, -0.05703992024064064, -0.11988282203674316, -0.012872515246272087, -0.033221326768398285, -0.019421270117163658, -0.03992344066500664, -0.15560391545295715, -0.03539443016052246, 0.2265070229768753, -0.1662277728319168, 0.12344729900360107, -0.1044938713312149, 0.13678714632987976, -0.14781838655471802, 0.028657356277108192, 0.153054878115654], [0.046226851642131805, 0.11830628663301468, -0.020741702988743782, 0.15467673540115356, -0.09640499949455261, -0.08623869717121124, -0.05140920728445053, -0.08980622887611389, -0.1145058125257492, 0.026173293590545654, -0.14080984890460968, -0.17078937590122223, -0.0724799707531929, -0.25227853655815125, 0.1622532159090042, 0.13286225497722626, -0.33144310116767883, 0.21786800026893616, -0.07692977786064148, -0.11647091805934906, -0.11222990602254868, 0.21922849118709564, 0.1646323800086975, 0.05581941828131676, -0.05132545530796051], [-0.14956340193748474, -0.04297405853867531, 0.07998830825090408, -0.02899802476167679, 0.10169877111911774, 0.11818118393421173, 0.17851510643959045, 0.0022565675899386406, 0.10857149213552475, -0.12574684619903564, 0.05108208954334259, -0.095255546271801, -0.20887616276741028, -0.06520770490169525, 0.11339887976646423, 0.024572452530264854, -0.1900518387556076, 0.27506890892982483, -0.1939389407634735, -0.07791560143232346, -0.011930563487112522, 0.1726391762495041, -0.2693644165992737, 0.194346621632576, 0.20800061523914337], [-0.024627091363072395, 0.07058270275592804, 0.0748654305934906, -0.04817650839686394, -0.15738838911056519, 0.12073829025030136, -0.19441889226436615, 0.25542154908180237, -0.12413127720355988, 0.20996224880218506, 0.22622448205947876, 0.1750316470861435, 0.09915246069431305, -0.10520461201667786, 0.06595705449581146, -0.03463292866945267, -0.09295518696308136, 0.0909985601902008, -0.10741753876209259, -0.10007228702306747, 0.027953321114182472, 0.009815479628741741, 0.13147342205047607, -0.01192701980471611, 0.02215907908976078], [0.1740947961807251, -0.027983026579022408, 0.028579959645867348, 0.07511790096759796, 0.11875409632921219, -0.03012002818286419, -0.06182020157575607, 0.047865744680166245, -0.07431504130363464, 0.11341781914234161, -0.2145734578371048, -0.00645412178710103, -0.06438656151294708, -0.18959826231002808, -0.13604526221752167, 0.1051921546459198, 0.07693973183631897, 0.1137065663933754, -0.023092273622751236, 0.06138461083173752, 0.1090097650885582, 0.03317597135901451, 0.06856167316436768, 0.015007413923740387, 0.134272500872612], [-0.0596310980618, -0.22934694588184357, -0.04893653094768524, 0.20941759645938873, 0.14091113209724426, -0.08196014910936356, -0.29706239700317383, -0.2844509482383728, 0.05446462705731392, -0.21130545437335968, 0.0064978827722370625, -0.11233792454004288, -0.11312457174062729, 0.0927947536110878, 0.10491675138473511, 0.11782515048980713, 0.09374271333217621, -0.12116755545139313, 0.18221421539783478, 0.15035627782344818, -0.20065782964229584, 0.11834589391946793, 0.1002311110496521, -0.11501631140708923, -0.03250276669859886], [-0.001016262685880065, 0.08855489641427994, -0.0839136466383934, -0.1607164591550827, -0.01190501730889082, -0.24851761758327484, -0.1991545706987381, -0.012949925847351551, 0.1053609699010849, 0.15057997405529022, 0.06629422307014465, 0.2797827124595642, 0.024874825030565262, -0.3970154821872711, 0.19189698994159698, -0.1075345128774643, -0.19085264205932617, 0.22256705164909363, -0.13905030488967896, -0.030345533043146133, 0.15152306854724884, -0.10307057201862335, 0.05866161733865738, -0.046777039766311646, 0.04661121591925621], [0.15923155844211578, 0.05836699903011322, 0.1445707529783249, -0.2079305499792099, 0.13690991699695587, -0.23560629785060883, 0.14749738574028015, -0.07724739611148834, 0.05702900141477585, -0.02828351967036724, -0.009691156446933746, 0.10968630760908127, 0.2074478715658188, -0.05252641811966896, 0.09840978682041168, -0.13735561072826385, -0.02953837625682354, 0.1063971072435379, -0.22368769347667694, 0.09611783176660538, 0.06848365068435669, 0.12208569794893265, -0.1874183565378189, 0.13207881152629852, 0.11817159503698349], [0.11637339740991592, -0.11971499770879745, 0.1506030559539795, -0.04821278899908066, -0.10177474468946457, -0.08299007266759872, -0.22884564101696014, -0.37507978081703186, -0.1812760829925537, -0.09803523123264313, 0.15574203431606293, 0.1806814819574356, -0.027893098071217537, -0.1826954185962677, -0.03530878946185112, -0.014386944472789764, -0.004137040581554174, 0.17585472762584686, -0.2696288228034973, 0.09018440544605255, -0.011655069887638092, 0.11336489766836166, 0.08156177401542664, -0.057746127247810364, 0.14082573354244232], [-0.10776587575674057, 0.20480035245418549, 0.025836098939180374, -0.28458163142204285, 0.09477373212575912, -0.06711042672395706, 0.09810805320739746, 0.09012201428413391, -0.1984509974718094, 0.0060648368671536446, -0.26205939054489136, -0.20984932780265808, 0.03467094153165817, 0.03875981271266937, -0.1635046899318695, 0.13983342051506042, -0.2134641706943512, 0.024582598358392715, -0.15014852583408356, 0.09514615684747696, -0.15524856746196747, 0.16403236985206604, 0.05826880782842636, -0.24513791501522064, 0.17169949412345886], [0.0306670144200325, 0.0531977154314518, 0.08376416563987732, 0.054550401866436005, -0.10746847838163376, -0.021124133840203285, -0.15128947794437408, 0.21690453588962555, 0.21175438165664673, 0.05236959457397461, -0.05366147682070732, 0.08581709116697311, 0.014278007671236992, -0.08603307604789734, 0.1038898453116417, -0.12941092252731323, -0.17869387567043304, -0.1348680704832077, 0.1240319237112999, 0.14659050107002258, 0.13954775035381317, 0.15042373538017273, 0.2158212661743164, -0.15567883849143982, -0.09218750894069672], [-0.025132352486252785, -0.08513640612363815, 0.21618571877479553, -0.12772424519062042, -0.13067077100276947, 0.20062674582004547, 0.1600656658411026, -0.13594400882720947, 0.0925745889544487, -0.19686369597911835, 0.004279729910194874, 0.0010009044781327248, -0.10909207910299301, -0.12024971842765808, 0.06332913786172867, -0.0693635419011116, 0.15777993202209473, 0.06614275276660919, 0.12449801713228226, -0.012231188826262951, -0.2993084490299225, -0.31264373660087585, 0.25166055560112, 0.028197715058922768, -0.26901593804359436], [0.035455372184515, -0.028081605210900307, 0.07132522761821747, -0.21454380452632904, -0.06562233716249466, -0.09501764178276062, -0.21635553240776062, -0.16051213443279266, -0.11699698865413666, -0.13415223360061646, -0.1602967381477356, -0.10073419660329819, -0.11344645917415619, -0.318568617105484, -0.1870158612728119, -0.07816804200410843, -0.18974892795085907, -0.03654443100094795, -0.18095974624156952, 0.14249128103256226, 0.10397660732269287, -0.07618901133537292, 0.07320086658000946, 0.1651153415441513, 0.19539791345596313], [-0.037036482244729996, -0.38604873418807983, 0.09539540857076645, -0.19787248969078064, -0.2188863754272461, 0.26283612847328186, 0.047664690762758255, -0.2604316473007202, 0.1782808005809784, 0.1878425031900406, 0.027035240083932877, -0.0943632647395134, 0.15333686769008636, -0.006538772489875555, -0.04833080992102623, -0.2764090597629547, -0.0856005847454071, -0.040508732199668884, 0.040132708847522736, 0.06879672408103943, 0.13606388866901398, -0.14501985907554626, 0.17706888914108276, -0.07587496191263199, -0.08778192847967148]], "fc1_bias": [0.12364080548286438, 0.1042669340968132, 0.04592915624380112, 0.07699210196733475, -0.11989215016365051, -0.06572475284337997, 0.05702466890215874, 0.021020442247390747, -0.1642875373363495, 0.129303440451622, 0.12508559226989746, 0.17088787257671356, 0.15338446199893951, 0.07263194024562836, 0.10727768391370773, 0.13917584717273712, -0.16562004387378693, 0.00019738417176995426, 0.07611367851495743, 0.0498877614736557, 0.1055244728922844, 0.11568296700716019, -0.17545703053474426, 0.09946206212043762, -0.12237200140953064, 0.13209599256515503, -0.10439524799585342, -0.11286425590515137, -0.10109414905309677, 0.14452806115150452, 0.14161348342895508, -0.22793996334075928, -0.007824849337339401, 0.14750392735004425, 0.14726868271827698, 0.12558959424495697, 0.199020117521286, -0.15363618731498718, 0.19716952741146088, -0.10160715878009796, 0.0343254879117012, 0.04502233862876892, 0.09989997744560242, -0.05239563807845116, 0.1825379729270935, 0.22055011987686157, -0.03084949590265751, 0.08452281355857849, 0.0060869972221553326, -0.05353064462542534, 0.15807734429836273, -0.055367425084114075, 0.21599414944648743, 0.09378650039434433, 0.04514675214886665, 0.028828158974647522, 0.2941575348377228, 0.1396428942680359, 0.18052436411380768, 0.1827646940946579, 0.053034666925668716, 0.033878304064273834, -0.09771278500556946, -0.06251303106546402], "fc2_weight": [[-0.11618165671825409, -0.18228724598884583, 0.12413471937179565, 0.08658239245414734, 0.1464555412530899, -0.14742282032966614, -0.03270401805639267, 0.0795602798461914, -0.014779106713831425, -0.13144521415233612, -0.0288326907902956, 0.1719679981470108, 0.07398391515016556, 0.16606351733207703, 0.08918198198080063, 0.1450457125902176, 0.017478644847869873, 0.03260595723986626, 0.011593280360102654, 0.13102076947689056, 0.11007536947727203, 0.07012274116277695, -0.097184918820858, 0.075889453291893, -0.11293148994445801, 0.06456256657838821, 0.12460985034704208, 0.06304845213890076, -0.009355736896395683, 0.11956293135881424, -0.09314274042844772, 0.03269089385867119, -0.020268023014068604, 0.033354535698890686, 0.06217988580465317, 0.21603575348854065, 0.14952588081359863, 0.06292127072811127, 0.21455270051956177, -0.16030091047286987, 0.08149485290050507, -0.07568108290433884, 0.12836214900016785, -0.15402673184871674, -0.13523997366428375, -0.08637763559818268, 0.04242400825023651, -0.06100653484463692, 0.12928347289562225, 0.1478729099035263, 0.04706510156393051, -0.03918405622243881, 0.10799361765384674, -0.0059167747385799885, -0.11409814655780792, 0.041558414697647095, -0.17552436888217926, 0.12165578454732895, 0.036789972335100174, 0.05358278751373291, -0.05115100368857384, 0.21785832941532135, 0.14069615304470062, 0.3194921612739563], [-0.044548243284225464, -0.12570954859256744, 0.1407967060804367, 0.28694549202919006, 0.0625639408826828, 0.1030329242348671, -0.014685802161693573, 0.09429877996444702, 0.06360489875078201, -0.0708305612206459, -0.021276747807860374, 0.23011347651481628, 0.08306026458740234, 0.18365128338336945, 0.010873759165406227, 0.06182573735713959, -0.006888792384415865, 0.17043234407901764, 0.10055455565452576, -0.08450855314731598, 0.21319764852523804, 0.16628505289554596, -0.26314976811408997, 0.009167064912617207, -0.04392646998167038, 0.16340652108192444, 0.12544503808021545, -0.08104794472455978, 0.028169643133878708, -0.0709185004234314, -0.16742613911628723, -0.004555117338895798, -0.08212415128946304, -0.12178102135658264, 0.0015107421204447746, 0.23331378400325775, 0.19419193267822266, -0.08202479034662247, 0.2941436469554901, -0.06342554092407227, -0.07475081831216812, -0.020204005762934685, -0.03834667056798935, -0.09409619122743607, 0.03381756693124771, 0.12196949869394302, 0.04071926698088646, 0.0035577169619500637, 0.02119985595345497, -0.1385899782180786, 0.014743524603545666, -0.1546223759651184, 0.15421955287456512, 0.0014922748086974025, -0.031647663563489914, 0.02715972065925598, -0.358458936214447, 0.044615864753723145, 0.10320217907428741, 0.32307374477386475, 0.0701742097735405, 0.1665859818458557, -0.005171412602066994, 0.4947224259376526], [0.06831387430429459, -0.2495146244764328, 0.21167412400245667, 0.12532201409339905, 0.0987737849354744, -0.06610879302024841, -0.07825496792793274, -0.09435561299324036, -0.012699474580585957, -0.12200406193733215, 0.11869550496339798, 0.22683873772621155, -0.050474170595407486, 0.10436156392097473, -0.0037426832132041454, 0.21371029317378998, -0.03936943784356117, 0.24463559687137604, -0.09756258130073547, 0.1731952279806137, 0.2047261893749237, -0.06816238909959793, -0.034851498901844025, -0.013538210652768612, -0.13342158496379852, -0.12686657905578613, -0.07731129229068756, -0.09557142108678818, -0.044619183987379074, 0.07843386381864548, -0.10213786363601685, -0.03760571405291557, 0.10843270272016525, 0.04843338578939438, -0.020987525582313538, -0.014177720993757248, 0.09057499468326569, 0.12116532027721405, 0.18782557547092438, -0.19106054306030273, -0.10683320462703705, -0.06056975573301315, 0.12915003299713135, -0.20721042156219482, -0.04132244363427162, -0.05905546620488167, 0.025201786309480667, 0.00908301118761301, -0.038028936833143234, 0.20032165944576263, 0.02326485700905323, -0.12012891471385956, -0.018678724765777588, 0.023300930857658386, 0.016801826655864716, -0.005973531864583492, -0.12057279795408249, 0.22695580124855042, 0.17579898238182068, 0.11719498038291931, 0.01798870787024498, 0.1364760845899582, 0.056936077773571014, 0.46315330266952515], [0.2690720856189728, -0.14437483251094818, -0.18760108947753906, 0.07326359301805496, -0.05896364897489548, -0.06810221821069717, -0.2941506505012512, -0.05352385714650154, -0.029878906905651093, 0.029424505308270454, 0.08686672151088715, 0.1379309594631195, -0.19813880324363708, -0.0066713751293718815, 0.006500658579170704, 0.11850454658269882, 0.1187678650021553, 0.0570417083799839, -0.004802959505468607, -0.027768436819314957, -0.027596937492489815, 0.16134804487228394, 0.11754477024078369, 0.028461266309022903, -0.06218912452459335, -0.16017316281795502, -0.05952052026987076, -0.13936308026313782, 0.050841305404901505, -0.09335490316152573, 0.022648010402917862, 0.18231962621212006, 0.1597408503293991, -0.10448864102363586, 0.11908481270074844, 0.21067151427268982, 0.052577026188373566, -0.12737828493118286, -0.0062372516840696335, 0.042605310678482056, 0.09060125052928925, -0.09003729373216629, -0.05450760945677757, 0.11593100428581238, 0.3537205457687378, 0.09459545463323593, -0.15945744514465332, 0.08560937643051147, -0.05919143930077553, -0.3892928659915924, -0.057643823325634, 0.16539345681667328, -0.24078823626041412, -0.1569148600101471, -0.12153671681880951, 0.1169596016407013, -0.1927032321691513, 0.026698805391788483, -0.07403171062469482, 0.09464020282030106, -0.0436742790043354, 0.018246890977025032, 0.17311453819274902, -0.19916856288909912], [-0.11395683884620667, -0.0830201730132103, -0.044678717851638794, -0.034735653549432755, 0.05874460190534592, 0.03837573900818825, -0.054486844688653946, 0.06672084331512451, -0.09678129851818085, -0.08507374674081802, -0.12400972098112106, 0.022872529923915863, -0.10376207530498505, -0.045090578496456146, 0.013345062732696533, 0.037197407335042953, -0.0641772672533989, -0.02729993499815464, -0.09690321236848831, 0.045277152210474014, 0.0540168322622776, -0.055305369198322296, 0.045019082725048065, -0.013152617029845715, 0.023151757195591927, -0.09657584875822067, -0.06986586004495621, 0.10534678399562836, 0.005800252314656973, -0.012021844275295734, 0.0946611613035202, -0.019939977675676346, -0.0471779927611351, -0.11781477928161621, 0.03724999725818634, 0.038204092532396317, 0.06819989532232285, -0.03180762380361557, 0.07527497410774231, 0.029470067471265793, -0.05119261145591736, -0.11266939342021942, 0.026177803054451942, -0.11757329106330872, 0.10693012923002243, -0.025547219440340996, 0.016063036397099495, -0.033758990466594696, 0.000383493781555444, 0.003954244777560234, 0.06277775764465332, -0.11545141041278839, -0.06017672270536423, 0.0417504757642746, -0.08471624553203583, 0.015952149406075478, -0.009014368057250977, 0.0315193347632885, -0.008288904093205929, -0.10065901279449463, -0.024915112182497978, -0.006298945751041174, -0.03176819905638695, 0.007022473495453596], [0.21368813514709473, -0.039103101938962936, 0.005747837480157614, -0.06954534351825714, 0.013112395070493221, -0.074320949614048, -0.04429720714688301, -0.030477134510874748, 0.1059604287147522, 0.19654954969882965, -0.017299162223935127, -0.1275983452796936, 0.1891053169965744, -0.04094041883945465, -0.08959406614303589, -0.1772657334804535, -0.07504675537347794, -0.2136198878288269, 0.14798928797245026, -0.08035264909267426, -0.11542361974716187, 0.027341866865754128, 0.06632775813341141, -0.03854620084166527, 0.006908503361046314, 0.05732195824384689, -0.04219545051455498, 0.034256309270858765, -0.0013015838339924812, 0.06594761461019516, 0.0764615535736084, 0.05485444888472557, 0.00021125064813531935, -0.08821399509906769, 0.019116869196295738, -0.13214637339115143, -0.05133851617574692, -0.13947249948978424, -0.09917184710502625, 0.21501874923706055, 0.11356866359710693, -0.058681048452854156, -0.01742388680577278, 0.14082428812980652, 0.14781144261360168, 0.10649526864290237, -0.054700035601854324, 0.154240682721138, 0.08251965045928955, -0.1536703109741211, 0.011930076405405998, 0.1478835791349411, 0.11321964114904404, 0.1509043276309967, -0.022775515913963318, -0.1354971081018448, 0.2599848508834839, 0.07817299664020538, -0.10332414507865906, -0.013087546452879906, -0.007352120243012905, -0.40016064047813416, -0.08564366400241852, -0.3512170910835266], [0.08653511852025986, -0.1422877460718155, 0.03585858643054962, 0.23738957941532135, 0.1144961565732956, 0.08695248514413834, 0.07177786529064178, 0.04409579187631607, 0.02963298000395298, -0.04847823455929756, 0.06877167522907257, 0.3395008146762848, 0.07414766401052475, 0.14883048832416534, 0.06937435269355774, 0.12026756256818771, -0.1357661932706833, 0.24386104941368103, 0.0724526196718216, -0.012191190384328365, 0.08347633481025696, 0.04408727586269379, -0.2057819366455078, 0.11024360358715057, -0.20567183196544647, 0.1065160483121872, 0.09945261478424072, -0.08682048320770264, 0.12997661530971527, -0.0931745171546936, -0.04416125267744064, -0.02260437421500683, 0.13831427693367004, 0.062497578561306, -0.0760849192738533, 0.11341419070959091, 0.1955651491880417, -0.06888704001903534, 0.18107649683952332, -0.18300765752792358, -0.08240548521280289, -0.02548171952366829, -0.03875605762004852, -0.06789609789848328, 0.0328366793692112, 0.12191168963909149, 0.1186387836933136, 0.003812401555478573, 0.10621015727519989, 0.09034128487110138, -0.09691628068685532, -0.06769482046365738, 0.08981670439243317, -0.10081957280635834, -0.04152154549956322, 0.09332489967346191, -0.22802460193634033, 0.025681879371404648, 0.12411738932132721, 0.034872978925704956, -0.05113906040787697, 0.14517837762832642, 0.09422274678945541, 0.3871047794818878], [0.011597808450460434, -0.024265581741929054, 0.2594684362411499, 0.25285646319389343, 0.0036052409559488297, -0.028643224388360977, 0.11148475855588913, -0.013698490336537361, 0.04475076496601105, -0.12223054468631744, 0.06682839244604111, 0.2729395031929016, -0.002288923831656575, -0.06496132910251617, 0.014975548721849918, -0.15906807780265808, 0.10220924764871597, -0.002904178574681282, -0.1864822804927826, -0.024523409083485603, 0.1663023680448532, 0.0843304917216301, -0.14712992310523987, -0.13801971077919006, -0.053166065365076065, -0.15324917435646057, -0.11920444667339325, -0.13362273573875427, -0.20955993235111237, -0.10298939794301987, 0.05134936422109604, -0.07415542006492615, 0.039865642786026, 0.16217492520809174, -0.052520304918289185, -0.11607606709003448, 0.2165306955575943, 0.1549873650074005, -0.08862368017435074, -0.04960523545742035, 0.020898450165987015, 0.041990138590335846, -0.07657645642757416, -0.23880977928638458, -0.09632394462823868, -0.10480693727731705, 0.03660554438829422, -0.24253791570663452, 0.0640576034784317, 0.08670850843191147, -0.13389785587787628, -0.10947784781455994, -0.07063733786344528, 0.12229271978139877, -0.04866425320506096, 0.05637288838624954, 0.07420762628316879, 0.07578855752944946, 0.0534227229654789, 0.11258085817098618, -0.0028608664870262146, 0.1474704146385193, 0.09265612810850143, 0.5391387939453125], [-0.02595956064760685, 0.1160590648651123, -0.08627431839704514, -0.24186672270298004, -0.13538320362567902, -0.05360075831413269, -0.01845700852572918, -0.07604377716779709, 0.17038904130458832, 0.21888209879398346, 0.09442547708749771, -0.17716388404369354, 0.11854972690343857, 0.021561982110142708, 0.03165263310074806, -0.16687709093093872, -0.13790422677993774, -0.32100430130958557, -0.0683983638882637, -0.11400815099477768, 0.0086577869951725, 0.1458144336938858, 0.1782088577747345, 0.12123629450798035, 0.16129133105278015, 0.05598897114396095, -0.014439579099416733, 0.2653549313545227, -0.08393538743257523, 0.07781326770782471, -0.12082728743553162, -0.05526641383767128, 0.0053496696054935455, 0.17338496446609497, -0.15499047935009003, -0.10753951966762543, -0.1306055188179016, -0.1179254874587059, -0.19675776362419128, 0.15472747385501862, 0.031363215297460556, 0.035888802260160446, -0.0011831754818558693, -0.059091467410326004, -0.22999247908592224, -0.11588098853826523, 0.025826603174209595, 0.225988507270813, 0.007735481020063162, 0.05244506523013115, -0.009813787415623665, 0.08565863221883774, -0.06734281033277512, 0.022711733356118202, 0.13437238335609436, -0.19087855517864227, 0.19945599138736725, 0.01702730730175972, -0.19678880274295807, 0.01046128012239933, 0.0018208591500297189, -0.1779038906097412, -0.10727209597826004, -0.2469242960214615], [0.1140223890542984, 0.1227276399731636, -0.08914768695831299, -0.1575421690940857, -0.02349736914038658, -0.10967381298542023, 0.0855003148317337, -0.13143908977508545, 0.12600621581077576, 0.29392895102500916, -0.02173248492181301, -0.2583439350128174, -0.032683759927749634, -0.1899329572916031, 0.0657200887799263, -0.04806966334581375, 0.14673404395580292, -0.2714315950870514, 0.06476494669914246, -0.13653868436813354, 0.03519183397293091, 0.021105527877807617, 0.18639783561229706, 0.1253184974193573, 0.21654759347438812, 0.07440043985843658, 0.0593191459774971, 0.24064521491527557, 0.056667227298021317, 0.07742727547883987, 0.010299851186573505, -0.07087914645671844, -0.12545958161354065, -0.07917986065149307, 0.04365925118327141, -0.16196605563163757, -0.3063589036464691, -0.05212573707103729, -0.24447470903396606, 0.15482152998447418, 0.02955057844519615, -0.02862788923084736, 0.11353885382413864, 0.06705991923809052, -0.2945951819419861, -0.12130962312221527, 0.006946437060832977, 0.026759307831525803, 0.10132480412721634, -0.09755963832139969, -0.08534764498472214, 0.12760202586650848, 0.006914552301168442, -0.01658615656197071, 0.05616585910320282, -0.08958566188812256, 0.1723397672176361, 0.0464126355946064, -0.12140347808599472, -0.21770675480365753, 0.1203160509467125, -0.12453816086053848, -0.1511148363351822, -0.3396562337875366], [0.10678239166736603, 0.08690175414085388, 0.30240339040756226, 0.08214712142944336, -0.0690135732293129, 0.14940781891345978, 0.21089181303977966, -0.02534220553934574, 0.0593322217464447, 0.08522244542837143, -0.031595032662153244, -0.1941506415605545, 0.13501812517642975, -0.059716202318668365, -0.06019485369324684, 0.09878363460302353, -0.30690687894821167, -0.07746971398591995, 0.02340656891465187, -0.15180565416812897, -0.2135796844959259, -0.2694001793861389, 0.10090593248605728, -0.009631723165512085, 0.08652251213788986, -0.21382445096969604, -0.09869612753391266, 0.07284887135028839, 0.1731531172990799, 0.03397136554121971, 0.04572485014796257, -0.012638876214623451, -0.3092963695526123, -0.09002550691366196, -0.03264951333403587, -0.21675944328308105, -0.3500255048274994, -0.011908138170838356, -0.21055135130882263, 0.20156598091125488, 0.17441055178642273, -0.04558344930410385, -0.189351424574852, 0.05513077974319458, 0.17218953371047974, 0.090706005692482, 0.09835175424814224, -0.17714764177799225, -0.02692032977938652, -0.037573590874671936, 0.12329805642366409, -0.08815223723649979, -0.04558386653661728, -0.13691285252571106, -0.12588869035243988, 0.027599439024925232, 0.1696237325668335, 0.05102194845676422, 0.15829499065876007, -0.22247277200222015, 0.05616078898310661, -0.01720908097922802, 0.14027203619480133, -0.3099437355995178], [-0.13425283133983612, -0.028206774964928627, 0.16901558637619019, 0.09884567558765411, 0.15019214153289795, 0.006950083188712597, 0.012917843647301197, -0.04415952041745186, -0.08002977818250656, -0.22424961626529694, 0.024139387533068657, 0.2504969537258148, 0.026962848380208015, 0.08673395961523056, -0.0617942214012146, 0.05889610946178436, -0.11446397006511688, 0.22155432403087616, -0.11318457126617432, 0.12619011104106903, 0.1758452206850052, 0.168910413980484, -0.10589853674173355, 0.04816802218556404, -0.04832145571708679, 0.13349278271198273, 0.012619155459105968, -0.06769866496324539, 0.05004193261265755, 0.02052006684243679, -0.10014836490154266, -0.05827471613883972, -0.07726883888244629, -0.10158275812864304, 0.09084179252386093, 0.1116531640291214, 0.11253988742828369, -0.0005930563202127814, 0.26874446868896484, -0.17359715700149536, -0.20482560992240906, -0.11581722646951675, 0.11606750637292862, -0.21500150859355927, -0.0010090410942211747, 0.14857766032218933, 0.12430059909820557, -0.07387061417102814, 0.03307974711060524, -0.07536924630403519, 0.1266022026538849, -0.10336912423372269, 0.16038741171360016, 0.010516028851270676, 0.0812266394495964, -0.14181454479694366, -0.08096501231193542, -0.05168948322534561, -0.011030970141291618, 0.25028756260871887, -0.05626480281352997, 0.12459927797317505, 0.16088925302028656, 0.36706674098968506], [-0.023907018825411797, 0.12686774134635925, -0.014119969680905342, 0.09819090366363525, -0.21982373297214508, -0.03565908595919609, 0.11972131580114365, -0.07631174474954605, 0.0206147413700819, -0.23286814987659454, 0.03634621202945709, 0.12399441748857498, 0.14543503522872925, 0.00287797418422997, -0.06491806358098984, 0.02852693386375904, -0.07085229456424713, -0.11407896876335144, -0.051828380674123764, -0.009978927671909332, -0.008410466834902763, 0.10293437540531158, 0.1936299055814743, 0.057786714285612106, -0.12081532180309296, -0.28067028522491455, 0.04371160268783569, -0.1314423829317093, 0.15051233768463135, 0.08816424012184143, -0.18292133510112762, 0.07904870808124542, -0.10873550921678543, -0.1797488033771515, -0.03736394643783569, -0.029272397980093956, 0.10888711363077164, 0.19055116176605225, -0.03183489292860031, 0.06594409793615341, 0.11224217712879181, 0.1368887722492218, 0.11993338167667389, 0.057015031576156616, 0.0011690475512295961, 0.07077518850564957, -0.1374385952949524, 0.11570807546377182, -0.10308380424976349, 0.17962293326854706, -0.12154389172792435, 0.1641131043434143, 0.011594977229833603, -0.15390315651893616, -0.09392067044973373, -0.12530280649662018, 0.034668486565351486, -0.03249475732445717, -0.1524060219526291, -0.1587490439414978, -0.024959083646535873, 0.002172589534893632, -0.10113993287086487, -0.18835973739624023], [-0.1519385278224945, -0.18086764216423035, 0.22032974660396576, 0.10151135921478271, -0.10010264813899994, -0.05884449928998947, -0.09774261713027954, 0.06269199401140213, -0.11592086404561996, -0.04696895554661751, 0.03295706585049629, 0.22505168616771698, 0.023723088204860687, 0.025649143382906914, 0.0381983183324337, 0.15729697048664093, 0.10231851786375046, 0.15707021951675415, 0.00995257031172514, 0.07640954852104187, 0.17211377620697021, 0.027622852474451065, -0.20149120688438416, -0.09048136323690414, 0.04524844139814377, 0.13408240675926208, -0.015231424011290073, -0.07931647449731827, -0.08283136039972305, 0.09278887510299683, -0.040318846702575684, -0.07142938673496246, -0.15312092006206512, 0.07179805636405945, -0.013737468980252743, 0.052484992891550064, 0.0045671905390918255, 0.014471348375082016, 0.27042171359062195, -0.2197032868862152, -0.07275062799453735, -0.07826843857765198, 0.10716069489717484, -0.09051769971847534, 0.0458572655916214, 0.05309014394879341, 0.08018703758716583, -0.019036870449781418, 0.10235067456960678, 0.014355870895087719, -0.12640529870986938, -0.1377183347940445, -0.07318070530891418, 0.08450986444950104, 0.07951055467128754, 0.04836616665124893, -0.10320858657360077, 0.046486277133226395, 0.13550648093223572, 0.18507927656173706, 0.0732000470161438, 0.12709540128707886, 0.0577133409678936, 0.30820053815841675], [0.07835794240236282, 0.23638999462127686, -0.1014796793460846, -0.17912399768829346, -0.016557300463318825, 0.13612566888332367, -0.1085449606180191, 0.08964230120182037, 0.1127047911286354, -0.1791335642337799, 0.12657451629638672, -0.42279499769210815, -0.16869112849235535, 0.028514554724097252, -0.034966785460710526, -0.2773415446281433, -0.21984876692295074, -0.2053738832473755, 0.12976466119289398, 0.009376575239002705, 0.03714149817824364, 0.08592389523983002, 0.03006643056869507, -0.02728937193751335, 0.12285368889570236, -0.20906159281730652, 0.07902481406927109, 0.10535646229982376, -0.1764897108078003, -0.04891769215464592, -0.05909737944602966, -0.03608035296201706, -0.052270591259002686, 0.019922539591789246, -0.2417643666267395, -0.09250550717115402, -0.05391720309853554, 0.04619942232966423, -0.2181180715560913, 0.20658671855926514, -0.05167996883392334, 0.01954200305044651, -0.20168671011924744, -0.11899175494909286, 0.011148851364850998, -0.13755087554454803, 0.011261101812124252, -0.11250664293766022, 0.04542314633727074, -0.04319363087415695, 0.0016956711187958717, -0.12028539925813675, -0.08009091019630432, 0.18827852606773376, 0.07066205888986588, 0.019626948982477188, 0.2580457031726837, -0.12006691843271255, 0.03593449294567108, -0.13497956097126007, 0.1004868745803833, 0.025745779275894165, -0.05910038575530052, -0.2780947983264923], [-0.038072846829891205, -0.043263260275125504, 0.13689787685871124, 0.10373378545045853, 0.016736557707190514, 0.0024265246465802193, 0.05124273523688316, -0.015423508360981941, -0.027067966759204865, -0.09463333338499069, -0.09519349038600922, 0.07015199214220047, 0.15038037300109863, 0.17423628270626068, 0.10540250688791275, -0.04944802075624466, 0.058555684983730316, -0.001942294999025762, -0.0664716586470604, -0.031185166910290718, 0.22936761379241943, -0.13450315594673157, -0.10259560495615005, -0.20443198084831238, -0.09568904340267181, -0.062338992953300476, 0.008932211436331272, -0.16852514445781708, 0.1086098849773407, 0.0668753981590271, 0.1179809719324112, -0.09266233444213867, 0.1807788908481598, 0.08967499434947968, -0.1673412322998047, 0.13697519898414612, -0.0012812045169994235, 0.09684324264526367, 0.1197417750954628, 0.11412245780229568, 0.11327312141656876, 0.004148243926465511, 0.09873376786708832, 0.0225028358399868, -0.13232563436031342, -0.11420375108718872, -0.07887771725654602, 0.03250643610954285, 0.006758742965757847, 0.09143175184726715, 0.028242798522114754, -0.19046014547348022, -0.08203244209289551, -0.12141270190477371, 0.06095130369067192, 0.04371299222111702, -0.10122949630022049, -0.08186858147382736, 0.10258091241121292, 0.193299800157547, 0.1650126874446869, 0.06594999134540558, -0.00871762540191412, 0.3878580331802368], [0.06281977891921997, -0.11053252220153809, 0.09233566373586655, 0.09544136375188828, -0.05799257010221481, -0.11662860214710236, 0.05024997517466545, 0.13271385431289673, -0.008804124779999256, -0.13305842876434326, -0.055145639926195145, 0.14089363813400269, 0.09957681596279144, -0.043999459594488144, -0.03310155123472214, 0.19942612946033478, 0.09753191471099854, 0.21174201369285583, -0.044810131192207336, -0.06565399467945099, 0.04786940664052963, 0.11276746541261673, -0.02270481362938881, -0.07440635561943054, -0.05125122144818306, 0.029229458421468735, -0.04793234542012215, -0.08462255448102951, -0.05345552787184715, -0.08379382640123367, -0.09391602128744125, 0.029597435146570206, -0.09829592704772949, 0.043307382613420486, 0.005960268899798393, 0.22872857749462128, 0.0585172101855278, 0.16164791584014893, 0.30124539136886597, -0.09172344952821732, -0.14252997934818268, -0.12499052286148071, 0.013073601759970188, 0.03337237238883972, -0.07279053330421448, -0.09184503555297852, 0.06563496589660645, -0.27666205167770386, 0.0014224069891497493, 0.023347044363617897, 0.02512604370713234, 0.0924224853515625, 0.10003157705068588, 0.01729283668100834, 0.0963735282421112, -0.08122538775205612, -0.10487242788076401, -0.10012798756361008, 0.12122379243373871, 0.2417212724685669, -0.13752266764640808, 0.18971246480941772, 0.1962338536977768, 0.19573600590229034], [-0.07783693075180054, -0.17302371561527252, 0.20296406745910645, -0.03784235566854477, -0.01619349978864193, -0.005467345472425222, -0.15408273041248322, -0.18305273354053497, -0.059052981436252594, -0.20447944104671478, -0.055120594799518585, 0.2806386947631836, 0.19001078605651855, -0.010057914070785046, 0.060723062604665756, 0.09907077997922897, -0.09292274713516235, 0.03533993661403656, 0.07079490274190903, 0.0712151825428009, 0.12396156787872314, 0.1282777041196823, -0.058011457324028015, 0.03947686403989792, -0.21601906418800354, 0.15789243578910828, -0.027557238936424255, -0.12069446593523026, 0.0639534592628479, 0.08753705024719238, 0.05458204820752144, 0.07317177951335907, -0.025618024170398712, -0.09900137782096863, 0.033632852137088776, 0.22446125745773315, 0.15721547603607178, 0.04872261732816696, 0.06592324376106262, -0.1558137834072113, -0.1363953948020935, 0.07249372452497482, 0.06714387983083725, -0.05367507413029671, -0.03558017686009407, 0.07056156545877457, 0.09998145699501038, 0.010222526267170906, 0.058159057050943375, 0.03306325152516365, -0.24139778316020966, -0.15961788594722748, 0.003828509012237191, -0.0855216532945633, 0.09223242849111557, 0.17243628203868866, 0.010684475302696228, -0.02485765889286995, 0.14832375943660736, 0.14426657557487488, -0.00860859639942646, 0.059172287583351135, 0.21894143521785736, 0.3842448890209198], [-0.07238675653934479, 0.10409659147262573, -0.05558042600750923, -0.24801191687583923, -0.022974761202931404, 0.1327105313539505, -0.00586045952513814, 0.005594336893409491, 0.12342657893896103, -0.2966609299182892, -0.11523330956697464, -0.034452371299266815, 0.016278889030218124, 0.021078545600175858, -0.0934232845902443, 0.0076867262832820415, 0.0855707973241806, -0.21186475455760956, 0.015154542401432991, -0.06618975102901459, -0.03252752870321274, 0.13036789000034332, 0.18283702433109283, 0.12019352614879608, 0.12947891652584076, -0.2753531336784363, 0.10621631890535355, -0.2053355872631073, -0.06660250574350357, -0.11704306304454803, -0.03741014003753662, 0.09716084599494934, -0.035534098744392395, -0.06396268308162689, 0.09088137000799179, -0.18766479194164276, -0.0759979784488678, -0.03595371171832085, 0.09033018350601196, 0.03732752054929733, 0.04824485257267952, -0.05601741001009941, 0.11449459195137024, 0.021848604083061218, 0.23676928877830505, -0.37158671021461487, -0.03463183715939522, 0.10806407034397125, -0.12664225697517395, 0.10248866677284241, 0.04466569051146507, 0.14694224298000336, 0.05720271170139313, -0.008130483329296112, 0.023539500311017036, 0.10017120093107224, 0.13048571348190308, -0.018734101206064224, -0.3029143810272217, -0.007618681062012911, -0.07953818887472153, 0.07655222713947296, -0.2900366485118866, -0.31616243720054626], [0.026235228404402733, -0.03604599088430405, 0.11746107041835785, 0.22807595133781433, -0.065058633685112, 0.011959025636315346, 0.10840237885713577, 0.12563472986221313, 0.0009147912496700883, -0.09895292669534683, 0.10540086776018143, 0.1088528037071228, 0.03875086456537247, 0.0518481507897377, 0.14448264241218567, -0.028349706903100014, -0.10228981077671051, 0.2749554514884949, -0.17263206839561462, -0.016695842146873474, 0.10730873048305511, -0.017620708793401718, -0.17384259402751923, 0.030766408890485764, -0.03786399960517883, 0.18178969621658325, -0.06885918229818344, -0.06399385631084442, 0.07029065489768982, -0.06912637501955032, -0.13672244548797607, -0.053100794553756714, 0.09479156881570816, 0.13613389432430267, -0.2057429552078247, 0.005473799537867308, 0.21292366087436676, -0.04839092120528221, 0.2725566327571869, 0.07107213884592056, 0.04686012864112854, -0.08548818528652191, 0.18309733271598816, -0.10992785543203354, -0.2162715047597885, -0.0006533151608891785, -0.10421637445688248, -0.08867951482534409, -0.04504607245326042, -0.08156847208738327, 0.022189388051629066, -0.14078672230243683, 0.04494927078485489, 0.10032925009727478, -0.02954786643385887, -0.023930244147777557, -0.02412068471312523, 0.08846891671419144, 0.07010284811258316, 0.2144324779510498, 0.08177672326564789, 0.09935379773378372, 0.08769316226243973, 0.4888474941253662], [0.12419711798429489, 0.11819903552532196, -0.0029035829938948154, 0.03716808184981346, -0.0494333878159523, -0.06842496991157532, -0.025896362960338593, 0.09091237932443619, -0.039568204432725906, 0.05519656836986542, -0.020417870953679085, -0.07336539775133133, -0.15801246464252472, 0.041127759963274, 0.018108947202563286, -0.06022212281823158, -0.0006677655037492514, -0.11556278169155121, 0.14518938958644867, -0.20209796726703644, 0.025720808655023575, -0.0012806537561118603, 0.19417253136634827, 0.07738306373357773, 0.09792374819517136, 0.04689108580350876, -0.1984827220439911, 0.04011441394686699, -0.061501987278461456, 0.013561801984906197, 0.16692215204238892, -0.025261711329221725, -0.04475093260407448, -0.004552348516881466, 0.0878932774066925, -0.07773207128047943, -0.11427804827690125, -0.06936421990394592, -0.3635355830192566, 0.16206634044647217, 0.06496695429086685, 0.06615113466978073, 0.10704638063907623, -0.06220901012420654, -0.011534135788679123, -0.03403423726558685, 0.08267762511968613, 0.06204565614461899, 0.0774388536810875, -0.24261119961738586, 0.05738837644457817, -0.0049569993279874325, 0.08218929916620255, -0.06043088808655739, -0.004873540252447128, 0.08070141077041626, 0.12803420424461365, -0.040700942277908325, 0.0689372643828392, -0.019923975691199303, 0.004653231706470251, -0.023514261469244957, -0.1363143026828766, -0.22338050603866577], [-0.009948713704943657, -0.004970257636159658, -0.1278914511203766, -0.1407308280467987, 0.1161980926990509, 0.13232845067977905, -0.10422442853450775, 0.019298173487186432, 0.17291224002838135, 0.121785007417202, -0.01152809988707304, 0.028233610093593597, -0.052734047174453735, 0.08678895980119705, 0.07051464915275574, -0.05440478026866913, -0.0767374336719513, -0.3156661093235016, 0.15242771804332733, -0.017406364902853966, -0.13125106692314148, -0.1590190827846527, 0.1512872576713562, 0.06509257853031158, 0.1425662487745285, -0.25197654962539673, -0.12397346645593643, -0.032962728291749954, -0.06639058887958527, -0.12977959215641022, 0.1169448122382164, 0.0019399310695007443, -0.06238149106502533, -0.062064029276371, -0.08387560397386551, -0.1257573813199997, -0.24608111381530762, -0.04415968805551529, -0.022885609418153763, 0.14377424120903015, 0.06738235801458359, 0.10769959539175034, 0.016331423074007034, 0.225326806306839, 0.03707502782344818, 0.11460518836975098, 0.060995180159807205, 0.13531289994716644, 0.08143053203821182, -0.059253815561532974, -0.02680296078324318, -0.004683630540966988, 0.06541865319013596, -0.0856713280081749, 0.008098004385828972, -0.09285281598567963, -0.026102593168616295, -0.09174485504627228, -0.01576124131679535, -0.2506921589374542, -0.21644780039787292, 0.13869965076446533, -0.03988296166062355, -0.18963167071342468], [0.16361883282661438, -0.0730062872171402, 0.11770394444465637, 0.02500222809612751, -0.2857556939125061, -0.12094614654779434, -0.18247443437576294, 0.1017608493566513, 0.029171867296099663, 0.26018327474594116, -0.013150992803275585, -0.11377633363008499, -0.04316112771630287, 0.07322902977466583, -0.1446215659379959, 0.11424146592617035, -0.10060521215200424, 0.2637885510921478, -0.20293520390987396, 0.03226985037326813, -0.07717165350914001, -0.08045417070388794, 0.18729159235954285, 0.06144222989678383, -0.0021496328990906477, -0.08869689702987671, -0.1787390410900116, 0.1792999804019928, 0.23230040073394775, -0.07659228146076202, 0.17371435463428497, 0.1224222183227539, 0.13904808461666107, -0.18886759877204895, 0.1384950578212738, 0.08858727663755417, 0.06773903220891953, -0.18427732586860657, -0.07838218659162521, -0.15585727989673615, -0.12184092402458191, 0.1660653054714203, -0.02849896438419819, 0.22986824810504913, 0.19096378982067108, 0.05270034447312355, 0.08640819787979126, 0.12654031813144684, -0.20739053189754486, -0.42936673760414124, -0.0671941339969635, 0.03838775306940079, -0.012999880127608776, 0.01476129237562418, -0.2913496792316437, 0.09526466578245163, 0.2176617830991745, 0.02106080949306488, 0.1510874629020691, 0.010579894296824932, 0.08911462128162384, -0.23453766107559204, -0.03609118238091469, -0.2266319841146469], [-0.043998051434755325, 0.12375868856906891, 0.14528092741966248, -0.08205422013998032, -0.038752198219299316, 0.09845376759767532, -0.06796497106552124, -0.15375249087810516, 0.05698440596461296, -0.021318377926945686, 0.05532750487327576, -0.28735610842704773, 0.01751078851521015, 0.061059098690748215, 0.03152194246649742, 0.0012627714313566685, -0.13391804695129395, -0.18359804153442383, 0.025131503120064735, -0.29212790727615356, -0.26944151520729065, -0.09234900772571564, 0.007564983330667019, 0.07718651741743088, 0.07969797402620316, 0.014865151606500149, -0.13161879777908325, 0.0026499538216739893, 0.15610291063785553, 0.06897354125976562, 0.15162672102451324, 0.0017737963935360312, -0.13494981825351715, 0.10982237756252289, -0.05263389274477959, -0.023491865023970604, -0.07805392146110535, 0.0016213824274018407, -0.17100690305233002, 0.20974870026111603, 0.057994645088911057, 0.15093691647052765, -0.058945972472429276, -0.019667256623506546, -0.1527668535709381, -0.15833379328250885, -0.07902321219444275, 0.018247442319989204, 0.11114921420812607, 0.10103045403957367, 0.12019047141075134, 0.11613389104604721, 0.0936298593878746, -0.05805720016360283, 0.0464031845331192, -0.16309882700443268, 0.19257962703704834, -0.01127354335039854, 0.007693640887737274, -0.13272854685783386, 0.01911247707903385, -0.22114551067352295, -0.2060474306344986, -0.0673593133687973], [0.01984797604382038, 0.09471526741981506, 0.04966286942362785, -0.3075335919857025, -0.13996268808841705, -0.1127803698182106, 0.12290734797716141, -0.050230808556079865, 0.0031203231774270535, -0.07096825540065765, 0.12220609933137894, -0.3426232933998108, 0.027625098824501038, -0.13568006455898285, -0.03010883554816246, -0.1555662751197815, -0.2639312744140625, -0.42610275745391846, -0.003922182600945234, -0.014652117155492306, -0.08333607017993927, -0.0920843556523323, -0.11833399534225464, 0.08520890027284622, -0.08692073822021484, -0.3333650529384613, -0.008070399053394794, 0.14828525483608246, -0.016869183629751205, 0.11874373257160187, -0.3141014873981476, 0.07411235570907593, -0.21329499781131744, 0.17442819476127625, -0.15144965052604675, -0.13886535167694092, -0.21698324382305145, -0.1173650324344635, -0.30525994300842285, 0.08234817534685135, 0.012959666550159454, 0.029697652906179428, -0.2835332751274109, 0.13912275433540344, -0.24216759204864502, -0.1011977419257164, -0.09279388189315796, 0.018295101821422577, 0.16380392014980316, -0.11497268825769424, -0.006738394498825073, 0.193497434258461, 0.10035254806280136, 0.2013511210680008, -0.041783738881349564, -0.08983566612005234, 0.08433246612548828, 0.13573651015758514, -0.037345658987760544, -0.10109981894493103, 0.10759241133928299, -0.028183534741401672, -0.1325255036354065, -0.38741394877433777], [-0.14904062449932098, -0.05848754197359085, 0.06353972852230072, -0.09501523524522781, -0.01613425649702549, -0.03668651357293129, -0.07582785934209824, -0.3044044077396393, 0.09469051659107208, -0.0321965366601944, -0.09477674961090088, 0.21521055698394775, 0.08123423159122467, 0.03792688995599747, 0.07191899418830872, 0.20041655004024506, 0.03976704925298691, 0.21870535612106323, 0.014055085368454456, 0.15894685685634613, 0.17651322484016418, -0.10294382274150848, -0.02044496312737465, 0.03445729613304138, -0.09193848818540573, -0.0018111170502379537, 0.01669398881494999, -0.0456717424094677, -0.14097221195697784, -0.11565279960632324, 0.039263442158699036, -0.10689763724803925, -0.037756115198135376, 0.08769179880619049, -0.06373762339353561, -0.07245726138353348, 0.11267387866973877, 0.07691838592290878, 0.2584947645664215, -0.11379048228263855, 0.005391388665884733, 0.004653018433600664, 0.02696909010410309, -0.10124333202838898, -0.16194672882556915, 0.03599846735596657, -0.10402386635541916, 0.07495015114545822, 0.035528648644685745, 0.20498955249786377, 0.000637639022897929, -0.09012263268232346, 0.0353022962808609, 0.01332815457135439, -0.014616310596466064, -0.022184131667017937, 0.12025822699069977, -0.049694765359163284, 0.20319335162639618, 0.07673531770706177, 0.03917713463306427, 0.1611921340227127, 0.19087053835391998, 0.5532182455062866], [0.08203588426113129, 0.09085426479578018, -0.045994799584150314, -0.02544601820409298, -0.08118079602718353, -0.09907311201095581, -0.25406917929649353, 0.14238867163658142, -0.037682775408029556, 0.12681466341018677, -0.0042673032730817795, 0.1365780532360077, 0.05313590168952942, -0.18225964903831482, 0.03015991486608982, -0.13535389304161072, -0.18314842879772186, -0.061820030212402344, -0.010827937163412571, -0.10813789814710617, -0.22877007722854614, -0.14721593260765076, 0.30656176805496216, 0.0861736610531807, -0.17126727104187012, -0.08686813712120056, -0.07824184745550156, -0.02484111860394478, 0.043618809431791306, -0.1213473230600357, -0.10709786415100098, 0.008389689959585667, -0.055280618369579315, 0.09997531026601791, 0.017498252913355827, 0.08523699641227722, 0.1457143872976303, 0.1987183690071106, 0.07569544017314911, 0.08599887788295746, -0.20218804478645325, -0.410533607006073, -0.10655984282493591, 0.0993797555565834, 0.2684449851512909, -0.0800841823220253, -0.32399076223373413, -0.13689301908016205, -0.20167973637580872, 0.1195826455950737, -0.07160839438438416, -0.16754157841205597, 0.05335395410656929, 0.16742274165153503, -0.13385725021362305, -0.22074665129184723, -0.3215756118297577, 0.009403732605278492, -0.1408732682466507, -0.15978942811489105, -0.28154024481773376, -0.05426443740725517, -0.2135913223028183, 0.013285702094435692], [-0.11673839390277863, -0.14022870361804962, 0.05791282281279564, 0.09451498836278915, -0.03355531767010689, -0.05287592113018036, -0.14736923575401306, -0.10932406038045883, -0.07807925343513489, 0.037754323333501816, -0.030123325064778328, 0.14402438700199127, -0.03615351766347885, 0.08388471603393555, -0.019409218803048134, 0.09472914785146713, 0.08899613469839096, 0.13693362474441528, 0.005411893595010042, -0.022137809544801712, 0.04759375378489494, -0.12890200316905975, -0.08623885363340378, -0.0795663446187973, -0.06679166853427887, -0.12177382409572601, 0.10209233313798904, 0.045164983719587326, 0.12664969265460968, -0.07809749245643616, -0.028758760541677475, 0.022023770958185196, 0.1588921695947647, 0.02931978926062584, -0.27308520674705505, 0.11921913176774979, 0.02600933611392975, -0.09098535031080246, 0.08892031759023666, 0.03122728131711483, 0.0903688371181488, 0.12958845496177673, 0.051150910556316376, -0.04429659619927406, -0.17570075392723083, -0.005177903920412064, -0.04203987866640091, 0.09460419416427612, 0.1288968175649643, 0.11483942717313766, -0.12102245539426804, -0.16813768446445465, 0.0667576789855957, -0.07878018170595169, -0.07870939373970032, -0.08766068518161774, -0.08601519465446472, -0.08919220417737961, 0.016678234562277794, 0.13414248824119568, 0.12255711853504181, 0.1943245232105255, 0.04758334532380104, 0.461086243391037], [-0.03823855519294739, 0.04522883892059326, 0.00841796025633812, -0.11367493122816086, 0.14138279855251312, -0.08780737966299057, -0.11300349980592728, -0.1097022071480751, 0.2055857926607132, -0.27667051553726196, 0.01822398044168949, -0.37936773896217346, 0.18653813004493713, 0.09359976649284363, -0.06733160465955734, 0.0419669933617115, -0.07318504899740219, 0.11590653657913208, 0.061054766178131104, -0.056864429265260696, 0.019371015951037407, -0.15695297718048096, -0.07620730251073837, -0.0728239119052887, -0.01666044443845749, 0.07623754441738129, 0.0985627993941307, -0.1797286570072174, -0.15186791121959686, -0.14126160740852356, -0.016716748476028442, 0.007066902704536915, -0.07383166253566742, -0.12037071585655212, -0.13697585463523865, 0.030421532690525055, -0.11227111518383026, 0.03717976063489914, 0.0055612241849303246, 0.11410924792289734, 0.12849242985248566, -0.07785046100616455, -0.08952417224645615, -0.038946036249399185, -0.060966599732637405, -0.11308251321315765, 0.12055641412734985, -0.02642969600856304, -0.11445439606904984, -0.04013730213046074, 0.018125060945749283, 0.0960654467344284, -0.03093283250927925, -0.03597402572631836, 0.040482185781002045, -0.0033177484292536974, 0.18588706851005554, -0.08625742048025131, 0.1775158941745758, 0.09054664522409439, -0.14829353988170624, -0.09287886321544647, 0.08107426762580872, -0.09749069809913635], [-0.029551226645708084, -0.15172834694385529, 0.24194736778736115, -0.02426336705684662, 0.03108804114162922, 0.1645124852657318, -0.1047028973698616, 0.10930097103118896, -0.05625149980187416, 0.19091828167438507, -0.18385085463523865, 0.13726580142974854, 0.07262272387742996, -0.3251670300960541, 0.11122449487447739, 0.12039399147033691, -0.15409192442893982, -0.2556152939796448, -0.058293770998716354, -0.16421620547771454, -0.051001500338315964, -0.0388367734849453, 0.2498219609260559, 0.17300423979759216, -0.2107086479663849, -0.282020628452301, 0.03746576979756355, -0.07457972317934036, 0.10410480201244354, -0.03702111914753914, -0.03021385334432125, -0.07805757969617844, -0.13138988614082336, 0.03889147937297821, 0.19773565232753754, -0.05198408663272858, 0.08896224200725555, 0.050027769058942795, 0.08249833434820175, 0.09767324477434158, 0.11445260792970657, 0.045649249106645584, -0.20951274037361145, 0.026143120601773262, 0.3222181797027588, 0.04308108240365982, 0.011174819432199001, -0.045904625207185745, -0.09512665122747421, 0.12186427414417267, 0.08994404226541519, 0.0324581116437912, 0.07150145620107651, 0.1402815282344818, -0.048870593309402466, -0.04971373453736305, 0.09364766627550125, 0.022991778329014778, -0.16715092957019806, -0.24737513065338135, -0.11493115872144699, -0.17716868221759796, -0.08096601814031601, -0.12743893265724182], [0.14520351588726044, 0.01132569182664156, -0.04595179483294487, 0.05737883970141411, -0.07726500183343887, -0.06392982602119446, 0.09231124818325043, 0.06085292994976044, -0.1016729399561882, 0.04033680260181427, -0.24114163219928741, 0.007926691323518753, -0.028681054711341858, -0.0966646820306778, 0.09389656037092209, 0.050949402153491974, -0.036477379500865936, -0.07168474048376083, -0.33486995100975037, 0.08614393323659897, -0.06781104952096939, -0.09305369108915329, -0.13358864188194275, -0.2854156196117401, 0.011535465717315674, 0.12040527909994125, -0.018895015120506287, -0.09955959767103195, -0.17935390770435333, 0.04395504295825958, -0.20004580914974213, -0.10008490830659866, 0.2191043645143509, 0.14019730687141418, -0.05312200263142586, -0.08219043165445328, 0.09264582395553589, -0.09511032700538635, -0.1893031746149063, 0.09934023767709732, -0.020416928455233574, -0.06298059970140457, -0.17219644784927368, -0.03604908660054207, -0.09163638949394226, -0.009776205755770206, -0.38890182971954346, -0.13398362696170807, -0.105832539498806, 0.10897196829319, -0.09674952179193497, 0.05450814589858055, -0.16848328709602356, 0.12221457809209824, 0.05508328974246979, 0.06014527007937431, 0.0766417533159256, 0.06403768062591553, 0.13310743868350983, 0.1313452422618866, 0.11155102401971817, 0.1680484116077423, -0.03294584900140762, -0.12755584716796875], [-0.06566318869590759, 0.1127377301454544, -0.1895533949136734, 0.01728340983390808, -0.019020037725567818, -0.04807282239198685, 0.08460058271884918, -0.002150194253772497, -0.17535310983657837, -0.07421723753213882, -0.0527033694088459, -0.21675975620746613, -0.05609535425901413, -0.18856124579906464, -0.016548654064536095, -0.055519185960292816, 0.08726625144481659, -0.20592188835144043, -0.05750690773129463, -0.17142674326896667, -0.11446376144886017, 0.06623603403568268, 0.1453719139099121, 0.04589341953396797, 0.07645870000123978, -0.21183094382286072, 0.051057275384664536, -0.0102738281711936, -0.11110784113407135, -0.02384212240576744, 0.07772742956876755, -0.018698325380682945, -0.0685485228896141, -0.026729922741651535, 0.048918355256319046, -0.222938671708107, -0.10697707533836365, 0.021626615896821022, -0.10977523773908615, -0.013484595343470573, 0.0028713473584502935, 0.15898600220680237, 0.1104143038392067, 0.07382554560899734, -0.0013967964332550764, 0.03534279391169548, 0.08099927753210068, -0.1339765340089798, 0.1175442636013031, 0.09473475813865662, 0.09154091030359268, 0.06061576306819916, -0.01941487193107605, 0.018972234800457954, -0.09229417890310287, -0.0422268882393837, 0.11435885727405548, 0.12074849009513855, -0.14025232195854187, -0.12184562534093857, 0.08544641733169556, -0.10298191010951996, -0.04541626572608948, -0.01729966700077057]], "fc2_bias": [-0.011040235869586468, 0.09548185765743256, -0.050748903304338455, 0.07301463186740875, -0.016057932749390602, -0.0843728706240654, -0.0713840126991272, -0.0979987159371376, 0.07267411053180695, 0.12304247170686722, 0.005252464674413204, -0.04675167426466942, -0.007254939526319504, 0.09662159532308578, -0.015464060008525848, 0.10125494003295898, 0.03307965025305748, 0.10713972896337509, 0.07217656821012497, 0.0984494537115097, 0.02534501999616623, 0.0504818931221962, -0.07685991376638412, 0.0721171572804451, -0.0023397267796099186, 0.11383384466171265, 0.05680621415376663, 0.08169985562562943, 0.15061533451080322, -0.07874003797769547, 0.0474984310567379, 0.12004130333662033], "fc3_weight": [[-0.15768590569496155, -0.10602681338787079, -0.18346896767616272, 0.5194012522697449, 0.10992442816495895, 0.29572001099586487, -0.1190023273229599, -0.21597567200660706, 0.19996994733810425, 0.1714172512292862, 0.2681572139263153, -0.14132656157016754, 0.39451298117637634, -0.1340341418981552, 0.2602083384990692, -0.1617353856563568, -0.18511687219142914, -0.22057104110717773, 0.23423217236995697, -0.18257838487625122, 0.13338126242160797, 0.2207639068365097, 0.4057638943195343, 0.24231946468353271, 0.2548203766345978, -0.34501445293426514, 0.5250289440155029, -0.15689490735530853, 0.21763239800930023, 0.29021701216697693, -0.231117844581604, 0.1457236260175705]], "fc3_bias": [-0.12360148131847382]}