{"fc1_weight": [[-0.0206316951662302, -0.20547010004520416, 0.13483762741088867, -0.062046781182289124, 0.06600381433963776, -0.035165950655937195, -0.15642628073692322, 0.07686083763837814, -0.1577421873807907, -0.05662669613957405, -0.2175232619047165, -0.23342986404895782, -0.15064747631549835, -0.0952330157160759, 0.07795895636081696, -0.04759597033262253, 0.016405081376433372, -0.20266667008399963, 0.23596931993961334, 0.18575002253055573, -0.15575630962848663, 0.08796022087335587, -0.23020251095294952, 0.1257321685552597, -0.014219950884580612], [-0.02025143802165985, 0.09186173975467682, -0.10855908691883087, 0.05116940662264824, 0.12111243605613708, -0.012263111770153046, 0.24448975920677185, 0.20674565434455872, -0.00536136282607913, -0.0860460102558136, -0.14935682713985443, 0.10700627416372299, 0.0553402341902256, 0.11135707050561905, -0.10017537325620651, -0.1434541791677475, -0.012701974250376225, 0.10343454778194427, 0.12578335404396057, 0.09881507605314255, 0.013130106031894684, -0.15298661589622498, -0.026481110602617264, -0.09795193374156952, -0.02205747552216053], [-0.13378940522670746, -0.11019131541252136, 0.14186808466911316, -0.22044257819652557, -0.005738269537687302, 0.13955116271972656, 0.1466507464647293, -0.020996185019612312, -0.08339134603738785, -0.24868105351924896, -0.17065776884555817, -0.1445116400718689, 0.08568847924470901, 0.0006197370821610093, -0.1420535296201706, 0.11328879743814468, -0.11586125195026398, 0.0933622494339943, -0.25914886593818665, 0.08977000415325165, -0.07466251403093338, 0.07217373698949814, 0.1068708598613739, 0.02195814624428749, 0.14479433000087738], [0.033930353820323944, 0.13134875893592834, -0.23685254156589508, 0.09367408603429794, 0.003941515926271677, -0.2346319705247879, -0.2846806049346924, -0.23362639546394348, 0.028198443353176117, -0.07928366959095001, -0.03269774094223976, -0.4648851156234741, -0.07444227486848831, 0.026100818067789078, 0.10335605591535568, 0.1378699392080307, -0.19133064150810242, 0.08459917455911636, -0.09871919453144073, -0.10086417198181152, -0.06043165177106857, -0.12182769924402237, 0.14112599194049835, 0.06302635371685028, 0.13981835544109344], [-0.034818440675735474, 0.14649447798728943, -0.12549105286598206, -0.021630870178341866, -0.24071191251277924, 0.10083156079053879, 0.12182868272066116, 0.08574339747428894, 0.08921927958726883, -0.1629141867160797, -0.1389390528202057, 0.017427967861294746, -0.11371055245399475, 0.2387012243270874, -0.12028361856937408, 0.15055297315120697, -0.1524946093559265, 0.045636698603630066, -0.07576636224985123, -0.11978667229413986, 0.08390621095895767, 0.06981692463159561, 0.033252786844968796, 0.11770270019769669, -0.1518542468547821], [0.034607741981744766, -0.10724496096372604, 0.13221238553524017, 0.059421394020318985, 0.0539226196706295, 0.015723364427685738, 0.08677235245704651, -0.11344926804304123, -0.23143313825130463, -0.2400902807712555, 0.12532921135425568, -0.12164800614118576, -0.17390024662017822, 0.2781289517879486, -0.230215385556221, 0.1851004660129547, -0.10643830895423889, -0.23176029324531555, 0.26664137840270996, -0.16752737760543823, 0.14729340374469757, 0.05701629817485809, -0.024059541523456573, -0.01443196926265955, -0.10873226076364517], [0.017503241077065468, -0.15519928932189941, -0.11025961488485336, -0.1758822202682495, -0.163852721452713, 0.039478104561567307, 0.06047260761260986, 0.11359969526529312, 0.14563076198101044, 0.07909578084945679, 0.1253972351551056, -0.045919109135866165, 0.08526773750782013, -0.10358015447854996, 0.24744045734405518, -0.014627570286393166, 0.14014731347560883, -0.03791910037398338, -0.15583211183547974, -0.023917077109217644, -0.017965564504265785, -0.17908495664596558, 0.032380327582359314, -0.011761034838855267, 0.17130427062511444], [-0.10589157789945602, -0.14617164433002472, 0.12478192895650864, 0.08079060912132263, -0.04756488651037216, 0.17587749660015106, -0.30103325843811035, -0.1467311680316925, -0.15272162854671478, 0.11317618191242218, -0.14997555315494537, -0.05248459801077843, 0.09735649079084396, 0.1840965747833252, 0.14721253514289856, -0.06222014129161835, -0.1755204200744629, -0.40813034772872925, -0.1346704661846161, 0.1853777915239334, -0.19208748638629913, 0.04383525252342224, 0.010801327414810658, -0.0229018721729517, -0.20405824482440948], [0.011211407370865345, -0.12511859834194183, -0.0561467669904232, 0.10289381444454193, 0.06856746226549149, 0.15300123393535614, 0.16190938651561737, 0.2226489782333374, -0.1744433343410492, 0.16774588823318481, 0.2032645344734192, -0.016654081642627716, -0.01605149358510971, -0.1651366651058197, -0.011098735965788364, -0.04362896829843521, -0.14802183210849762, -0.21830759942531586, -0.11551149934530258, 0.18901631236076355, 0.12642741203308105, -0.09822095930576324, 0.0505266971886158, -0.05727878585457802, 0.1392589807510376], [-0.13766957819461823, -0.19201278686523438, -0.07147162407636642, -0.06657149642705917, -0.04927981644868851, 0.04342428222298622, 0.19193428754806519, 0.1356077492237091, 0.22561566531658173, 0.20224320888519287, -0.07760604470968246, -0.15224258601665497, 0.003672889433801174, -0.21586845815181732, -0.1423349231481552, -0.009300598874688148, 0.2578657865524292, -0.0005286287050694227, 0.0926295816898346, 0.130959153175354, -0.1850001960992813, -0.2101498246192932, -0.09128722548484802, 0.08399326354265213, -0.0508425347507], [-0.02545972168445587, 0.14016029238700867, 0.19367611408233643, -0.06596675515174866, -0.1961735039949417, -0.10164496302604675, 0.14638379216194153, -0.05420517176389694, 0.16780555248260498, -0.04094268009066582, -0.09687752276659012, -0.10511667281389236, -0.07752551883459091, 0.21575669944286346, 0.11805038154125214, 0.08907071501016617, 0.24136203527450562, -0.16663752496242523, 0.1288215070962906, -0.04178842902183533, -0.0405992716550827, 0.1873152107000351, 0.06919703632593155, -0.15356390178203583, 0.16365638375282288], [-0.12925587594509125, 0.08048412948846817, -0.042610667645931244, -0.22721494734287262, 0.006393682211637497, -0.06390511989593506, -0.006058340426534414, -0.08736616373062134, 0.29574933648109436, -0.22083957493305206, -0.11780042946338654, 0.1350107043981552, -0.11950673162937164, -0.06523158401250839, -0.07354694604873657, -0.12599033117294312, 0.012148924171924591, -0.017048677429556847, 0.2075345367193222, -0.2341289073228836, 0.10039117932319641, 0.13245628774166107, 0.16541562974452972, -0.047589968889951706, -0.126601904630661], [0.16669900715351105, 0.1476031392812729, 0.07810124009847641, 0.09947675466537476, -0.15146425366401672, 0.06839478760957718, 0.060732778161764145, 0.14169539511203766, 0.2019752711057663, -0.0401986688375473, -0.2067539244890213, -0.1111641600728035, -0.1243753433227539, -0.14352849125862122, -0.1758190542459488, -0.180424302816391, 0.10783697664737701, -0.4265075922012329, -0.32676103711128235, 0.09609043598175049, -0.08279004693031311, 0.159312441945076, -0.16375824809074402, 0.13140127062797546, -0.13374388217926025], [-0.1571059226989746, -0.2506778836250305, -0.17425896227359772, -0.2134178876876831, -0.23119084537029266, -0.27161186933517456, 0.21017681062221527, -0.11122879385948181, 0.13333749771118164, -0.20206458866596222, -0.11281011998653412, 0.04099129140377045, 0.11993806064128876, 0.09726637601852417, 0.09678655862808228, -0.20970280468463898, 0.2771095335483551, 0.08940718322992325, -0.15412597358226776, 0.0003335780929774046, 0.07427742332220078, -0.03377452865242958, 0.17914730310440063, -0.07493992149829865, -0.01910809613764286], [-0.0001250868517672643, -0.25860339403152466, 0.07476929575204849, -0.10904888063669205, 0.1811649054288864, -0.017132550477981567, -0.2539238929748535, -0.336133748292923, 0.17586250603199005, 0.12441086769104004, -0.11505348235368729, -0.18497037887573242, 0.1861775666475296, -0.13888467848300934, -0.09579795598983765, 0.11298835277557373, -0.09411489963531494, 0.013592129573225975, 0.11898241937160492, 0.10526879131793976, 0.16582542657852173, -0.046554479748010635, 0.01816008798778057, 0.02229384332895279, -0.10097425431013107], [-0.09252580255270004, 0.20794916152954102, -0.001561189303174615, -0.36907145380973816, -0.02682863175868988, 0.06286013126373291, -0.09542647004127502, -0.039786286652088165, -0.29290130734443665, -0.0028704414144158363, 0.035426873713731766, 0.04498390108346939, 0.0470481812953949, -0.016877325251698494, 0.02876940369606018, -0.1269112527370453, -0.1457352191209793, -0.252620130777359, -0.6505391597747803, -0.10483677685260773, 0.12858076393604279, 0.1635546237230301, -0.04654400795698166, -0.08796713501214981, -0.051273368299007416], [-0.057658761739730835, -5.1434435590635985e-05, -0.1631471812725067, -0.01976684480905533, 0.03740128502249718, -0.15042781829833984, -0.17640475928783417, -0.008142896927893162, -0.11089029908180237, 0.03573464974761009, -0.014632120728492737, -0.1622220128774643, 0.14691369235515594, -0.1215532198548317, 0.002925529144704342, 0.1798163652420044, 0.0073635936714708805, 0.11712444573640823, 0.0345713272690773, 0.19291375577449799, 0.027300868183374405, -0.16756555438041687, 0.20553772151470184, 0.17906087636947632, -0.15441058576107025], [0.13002657890319824, 0.17745482921600342, -0.005140690598636866, 0.021837333217263222, -0.10631470382213593, 0.1062561646103859, 0.1876731663942337, 0.14294511079788208, -0.12877720594406128, -0.06667336076498032, 0.08252518624067307, 0.1165878102183342, 0.002922763815149665, 0.01771519146859646, 0.044653747230768204, -0.13644914329051971, 0.1338658630847931, -0.18715864419937134, -0.14987292885780334, -0.07932011783123016, -0.19751377403736115, -0.026075834408402443, -0.18095818161964417, 0.15689115226268768, -0.014606688171625137], [0.10948974639177322, -0.05674364045262337, -0.037048835307359695, 0.21134240925312042, -0.11583929508924484, -0.016303131356835365, -0.15399861335754395, -0.13742883503437042, -0.2173404097557068, 0.133963480591774, -0.17061783373355865, 0.11842283606529236, 0.08028585463762283, -0.2474634200334549, 0.10297843813896179, -0.1324489712715149, -0.16056250035762787, 0.16862079501152039, -0.1099192276597023, -0.04059937223792076, -0.012921446934342384, 0.18254490196704865, 0.1255875825881958, 0.10392355918884277, 0.002555139595642686], [0.002590773394331336, -0.061642248183488846, -0.16624462604522705, 0.0727129653096199, -0.09108704328536987, 0.09040767699480057, -0.05545048043131828, -0.048029668629169464, 0.020586980506777763, 0.056482721120119095, -0.043365176767110825, -0.10008067637681961, -0.161163330078125, 0.02107210084795952, 0.0031251099426299334, -0.09630566835403442, -0.04135597124695778, 0.1225435808300972, 0.17705535888671875, 0.18864145874977112, -0.1269950568675995, 0.11258939653635025, -0.06943170726299286, 0.17369191348552704, -0.16929972171783447], [-0.1584315448999405, -0.10316798090934753, 0.07662516832351685, 0.048867929726839066, 0.09843418002128601, 0.07051292061805725, 0.09980618953704834, -0.00890341680496931, 0.13942109048366547, -0.12202732264995575, 0.22448383271694183, -0.3269425332546234, 0.13236889243125916, 0.17214031517505646, 0.03994611278176308, -0.18356488645076752, -0.3625003695487976, -0.481659471988678, -0.09709897637367249, 0.04009772464632988, -0.03225158900022507, -0.21123512089252472, -0.0195454154163599, 0.12995553016662598, 0.1563795953989029], [-0.017631344497203827, -0.16431491076946259, 0.03640780970454216, -0.09111247211694717, -0.11480028927326202, 0.11829005926847458, -0.2857583165168762, -0.27383387088775635, 0.04617726057767868, 0.16995415091514587, -0.12113082408905029, -0.15364870429039001, -0.06560495495796204, 0.20958182215690613, 0.03847844898700714, 0.0012899189023301005, -0.32589948177337646, -0.2613160014152527, -0.10849948227405548, -0.0804005116224289, 0.1491876095533371, -0.0660594254732132, -0.08405636996030807, -0.09879697114229202, 0.16401897370815277], [-0.17000041902065277, 0.09168941527605057, 0.04834558814764023, 0.06768939644098282, 0.003529520705342293, 0.17186221480369568, 0.04782034829258919, -0.07772572338581085, -0.07690854370594025, 0.1616935133934021, 0.08152718842029572, 0.1478227972984314, 0.12259409576654434, 0.08599409461021423, 0.04535224288702011, -0.1385079324245453, 0.08714541792869568, 0.03688996285200119, -0.051885999739170074, 0.04642729088664055, 0.15150102972984314, 0.14030508697032928, -0.025414934381842613, -0.17541992664337158, -0.043617572635412216], [-0.08339854329824448, -0.07538112252950668, 0.06422428041696548, -0.2120366245508194, 0.027977507561445236, 0.0089340815320611, 0.057724934071302414, 0.004664276726543903, -0.29548174142837524, -0.34162381291389465, -0.2275136113166809, 0.11828704923391342, -0.01208734605461359, 0.002057134872302413, -0.02483523264527321, 0.058132268488407135, -0.3342781662940979, 0.20646095275878906, -0.2515058219432831, -0.07828943431377411, -0.16868391633033752, -0.05451124161481857, 0.07935428619384766, -0.0979384109377861, 0.1968119740486145], [-0.15016932785511017, -0.07323931902647018, 0.1419660598039627, -0.04702678322792053, 0.2029476910829544, 0.09433180093765259, 0.12997566163539886, -0.1313662827014923, -0.42288464307785034, -0.12890507280826569, -0.03342732414603233, -0.04715154320001602, 0.125971719622612, -0.12654991447925568, 0.10007525235414505, -0.07098599523305893, -0.003875098889693618, 0.13749074935913086, 0.032746680080890656, -0.13247181475162506, 0.04059506580233574, -0.08513965457677841, 0.15194278955459595, 0.06926574558019638, 0.10034213960170746], [-0.03280998021364212, 0.19276443123817444, 0.023345768451690674, 0.029795195907354355, 0.041615355759859085, -0.11040322482585907, -0.2899865508079529, 0.14192579686641693, -0.2520259618759155, -0.16694022715091705, 0.16118383407592773, -0.11521846055984497, 0.14776115119457245, 0.08020244538784027, 0.11427970975637436, 0.02078535035252571, -0.02828580141067505, 0.10174468904733658, -0.29110172390937805, -0.03191058710217476, 0.16514916718006134, 0.10932144522666931, 0.08534406125545502, 0.0023806814569979906, 0.0007343328325077891], [-0.03988976404070854, -0.07631310820579529, 0.11387718468904495, 0.027930699288845062, 0.1107412725687027, -0.08076033741235733, -0.15675094723701477, -0.12222164124250412, -0.1398112177848816, 0.15718695521354675, 0.1523783951997757, -0.2097971886396408, 0.038823168724775314, -0.011033538728952408, -0.18228685855865479, 0.06787566840648651, -0.04566095769405365, -0.47638067603111267, -0.2419527918100357, 0.10426992177963257, 0.06683991104364395, 0.02004997804760933, -0.19942836463451385, -0.15000829100608826, -0.00951277744024992], [-0.009472296573221684, 0.054650332778692245, 0.08488178998231888, -0.10482945293188095, -0.0017475099302828312, 0.20370326936244965, -0.010837783105671406, -0.370824933052063, -0.35669735074043274, -0.24207442998886108, -0.007089789025485516, -0.12416372448205948, -0.003815792500972748, -0.3972027897834778, 0.1215658113360405, 0.17790444195270538, -0.16650675237178802, 0.065215565264225, 0.08250964432954788, -0.11020468175411224, -0.11726251244544983, 0.15707029402256012, 0.026439862325787544, 0.008963593281805515, 0.009279357269406319], [0.11543407291173935, 0.13073188066482544, 0.09079571068286896, 0.004035908728837967, 0.01097193080931902, 0.1462944895029068, -0.0796247124671936, 0.24587558209896088, 0.02517101541161537, 0.10613645613193512, -0.13174591958522797, 0.045614756643772125, 0.24554887413978577, -0.2248225063085556, 0.143828347325325, 0.01313638687133789, -0.17736053466796875, -0.44552651047706604, -0.29965999722480774, -0.18382658064365387, -0.264959454536438, 0.17420315742492676, -0.008231949992477894, 0.04007052257657051, -0.1523858904838562], [-0.13514038920402527, -0.19943548738956451, -0.1513117253780365, -0.22981403768062592, 0.20388159155845642, 0.03842597454786301, 0.12056627124547958, 0.2556823492050171, 0.2739475667476654, -0.09743732213973999, 0.0509394146502018, 0.12991629540920258, -0.07266927510499954, 0.06361067295074463, -0.0547783300280571, 0.14356152713298798, 0.03388206288218498, 0.10340193659067154, 0.10338173806667328, -0.10530731081962585, -0.13340428471565247, -0.05365143343806267, -0.11827441304922104, -0.13993868231773376, 0.1888568252325058], [-0.14534585177898407, 0.05845899134874344, 0.06810230016708374, 0.08049989491701126, -0.09896478056907654, -0.12341415137052536, -0.013627484440803528, -0.21641598641872406, -0.6552520990371704, -0.03344736248254776, 0.20173977315425873, 0.18356944620609283, -0.024097837507724762, -0.48692575097084045, -0.12237903475761414, 0.07280757278203964, 0.23675855994224548, 0.1802709549665451, -0.15023872256278992, 0.025516008958220482, -0.16238100826740265, -0.06288040429353714, 0.1208752915263176, -0.08164519816637039, 0.04462842270731926], [-0.1067170575261116, 0.1774713695049286, -0.2031700313091278, 0.11492053419351578, -0.0646420493721962, 0.17902077734470367, -0.26222434639930725, -0.23776206374168396, -0.04369368776679039, 0.13629645109176636, 0.13779310882091522, -0.01293768547475338, 0.04772127792239189, 0.011058032512664795, -0.07576420158147812, 0.10837769508361816, -0.030139999464154243, -0.4617465138435364, 0.07259590923786163, -0.105804942548275, -0.21315361559391022, 0.03410344943404198, -0.13477976620197296, 0.004659253638237715, -0.005349326878786087], [0.0649772509932518, 0.19215655326843262, -0.09158821403980255, 0.08709953725337982, -0.10511917620897293, 0.0985717922449112, 0.026791447773575783, 0.12338180094957352, 0.03728187456727028, -0.10809192061424255, -0.17898818850517273, -0.006193406414240599, -0.15761515498161316, -0.18664787709712982, -0.0714181512594223, -0.0039533572271466255, -0.1826314479112625, -0.1621338427066803, -0.2552630603313446, -0.05939794331789017, -0.1571217030286789, -0.12658517062664032, 0.14945712685585022, 0.12160985171794891, 0.0662185475230217], [-0.01247218158096075, 0.010091111995279789, 0.05324044078588486, -0.013393326662480831, -0.01764042116701603, 0.17335744202136993, 0.08041073381900787, 0.18943586945533752, 0.07957221567630768, -0.07063620537519455, 0.03269493579864502, -0.016578055918216705, 0.10170188546180725, 0.12336235493421555, -0.048140864819288254, 0.08606336265802383, -0.22222647070884705, -0.5297743082046509, -0.143172487616539, -0.1378093957901001, -0.11344151943922043, -0.2137472778558731, 0.011182591319084167, -0.1024581715464592, 0.06371600180864334], [-0.046684570610523224, 0.08149276673793793, 0.21787051856517792, 0.06697656959295273, -0.08088832348585129, -0.25642818212509155, -0.12431038916110992, 0.0449724979698658, 0.08296902477741241, 0.04611542448401451, 0.07060962170362473, 0.23327429592609406, -0.11526843160390854, 0.24022915959358215, -0.05838967487215996, 0.2296532839536667, -0.12110926955938339, -0.02248571440577507, -0.043000705540180206, 0.06208411231637001, -0.13424810767173767, -0.03927914798259735, 0.017115293070673943, 0.18941526114940643, -0.1586601436138153], [0.16365505754947662, -0.054619379341602325, 0.23987366259098053, 0.22600266337394714, 0.1294877976179123, 0.16994062066078186, -0.17043791711330414, -0.05242631211876869, -0.09116563946008682, -0.024088194593787193, -0.0747370794415474, -0.162957102060318, 0.08831734210252762, -0.1571742296218872, -0.19998368620872498, -0.0849263146519661, -0.06885053962469101, 0.3785506784915924, 0.09695522487163544, -0.06397667527198792, -0.14404204487800598, -0.1437491476535797, -0.2408604770898819, -0.20066633820533752, -0.016151638701558113], [0.06675875931978226, -0.29584619402885437, -0.24936173856258392, -0.11839370429515839, -0.12806189060211182, 0.0034455307759344578, -0.004185604862868786, -0.04624052718281746, 0.03268026188015938, -0.015333822928369045, 0.06984712928533554, -0.15723960101604462, -0.10380861163139343, -0.16647396981716156, 0.014122605323791504, -0.13753892481327057, -0.1853741854429245, -0.309330552816391, -0.2137620449066162, 0.06094137206673622, -0.08200440555810928, -0.08289429545402527, 0.15981894731521606, 0.059473857283592224, -0.16512097418308258], [-0.40451645851135254, -0.2868889570236206, -0.03042680211365223, 0.022429071366786957, -0.12421367317438126, -0.17087362706661224, 0.25592148303985596, -0.009957176633179188, 0.05391692370176315, 0.08000148832798004, -0.25684690475463867, -0.22962558269500732, 0.07666084915399551, -0.021114135161042213, 0.11462929099798203, -0.10690999776124954, -0.1942853480577469, -0.036419786512851715, 0.24937519431114197, -0.022276952862739563, -0.06867942959070206, 0.031940020620822906, 0.007582354359328747, -0.14969514310359955, 0.03863755986094475], [-0.06009518727660179, -0.09096670150756836, -0.022035907953977585, 0.1262727826833725, 0.13031071424484253, -0.11277376860380173, 0.21397368609905243, 0.13185670971870422, 0.28864753246307373, 0.1289411187171936, 0.0421617291867733, 0.30507445335388184, -0.10502418875694275, 0.06813091039657593, -0.147071972489357, 0.09614679962396622, -0.13288497924804688, 0.08317764848470688, 0.21694797277450562, -0.024467993527650833, 0.15159842371940613, 0.13620400428771973, 0.00842320453375578, -0.10486768186092377, 0.13833986222743988], [0.06994853168725967, 0.08552463352680206, -0.10840387642383575, 0.02362028881907463, -0.030860958620905876, 0.003236467484384775, -0.2664490044116974, -0.20675377547740936, 0.25748467445373535, 0.24589726328849792, 0.16344985365867615, -0.03797496110200882, -0.02041207067668438, 0.020351562649011612, -0.005383402109146118, -0.13219761848449707, 0.13034087419509888, 0.11729470640420914, -0.055133603513240814, -0.06234508752822876, 0.04834027215838432, -0.13990576565265656, 0.0904420018196106, -0.13873441517353058, 0.1470748633146286], [0.11609363555908203, 0.11799288541078568, 0.13398773968219757, -0.16728876531124115, 0.061650872230529785, 0.11993397027254105, 0.14791417121887207, 0.25601494312286377, 0.23727723956108093, -0.13035956025123596, 0.010112354531884193, 0.12903377413749695, 0.08258150517940521, 0.17838865518569946, 0.0953560397028923, -0.026402907446026802, -0.10862929373979568, 0.1269238293170929, -0.16441713273525238, 0.08333053439855576, 0.01630493625998497, -0.029515499249100685, 0.17860303819179535, 0.0882682129740715, -0.010045889765024185], [-0.1364913284778595, 0.11509399116039276, 0.003620854578912258, -0.09772241115570068, -0.06524520367383957, 0.18488819897174835, 0.024297107011079788, -0.06313394010066986, -0.10149143636226654, -0.0075058648362755775, 0.13180549442768097, 0.19834274053573608, -0.12341225147247314, -0.4395512640476227, -0.188558429479599, 0.14210009574890137, 0.12839752435684204, 0.06355594098567963, -0.2001139223575592, 0.09862753003835678, -0.048692986369132996, 0.05788853392004967, -0.17653869092464447, -0.13357679545879364, 0.09090957790613174], [0.08908196538686752, 0.09784423559904099, 0.045071594417095184, 0.12304572016000748, 0.11418955028057098, -0.16107043623924255, 0.2117100954055786, 0.24774813652038574, -0.05221617966890335, 0.06766204535961151, 0.10974127054214478, 0.2674431800842285, 0.06786834448575974, 0.030886324122548103, -0.22028671205043793, -0.1720958799123764, 0.1553841531276703, -0.17825689911842346, 0.16380494832992554, -0.08936885744333267, 0.2679470479488373, 0.12198330461978912, -0.12012094259262085, -0.09603744745254517, 0.10655485838651657], [0.008688930422067642, 0.15467362105846405, -0.15624621510505676, -0.09926838427782059, -0.18003037571907043, -0.22368554770946503, -0.0888114795088768, -0.27209851145744324, 0.015294947661459446, 0.1512705683708191, 0.12261102348566055, -0.2429487407207489, 0.24182069301605225, -0.03294297680258751, 0.08141714334487915, 0.09250964224338531, -0.03437260538339615, 0.09611481428146362, 0.1750602275133133, 0.18012107908725739, 0.04884660243988037, 0.12366219609975815, -0.13152647018432617, -0.05884692817926407, -0.054886024445295334], [0.1475408971309662, -0.17216794192790985, -0.03169472515583038, -0.022067934274673462, -0.1355254352092743, -0.2249341756105423, 0.07024505734443665, 0.2631586492061615, -0.0017609804635867476, -0.23476937413215637, 0.16871723532676697, 0.17380376160144806, -0.21800975501537323, -0.06507579237222672, -0.1399720460176468, -0.06424908339977264, -0.10644984990358353, -0.3064250648021698, -0.3998659551143646, -0.11466985940933228, -0.01717761717736721, -0.27655029296875, -0.24517874419689178, -0.27896353602409363, -0.17108659446239471], [-0.006862645968794823, -0.2733764946460724, 0.12889881432056427, -0.07121896743774414, -0.2238166481256485, 0.2015743851661682, 0.16208721697330475, 0.01114609930664301, -0.32046428322792053, -0.08728794008493423, 0.010954510420560837, 0.009882427752017975, -0.04447275772690773, 0.2402012199163437, 0.12277190387248993, -0.1053633838891983, -0.2037225365638733, -0.09367083013057709, -0.028887851163744926, -0.050929050892591476, -0.14590348303318024, 0.26629838347435, -0.12208060175180435, 0.18666468560695648, -0.11087898164987564], [0.13127312064170837, -0.14300429821014404, -0.18365631997585297, -0.2730870544910431, 0.006374277174472809, -0.0942840725183487, 0.011370752938091755, 0.09338771551847458, 0.09157390147447586, -0.09515445679426193, -0.12322952598333359, -0.07080910354852676, 0.0899144783616066, -0.1317778080701828, 0.05546635761857033, 0.0194716714322567, -0.3298816978931427, -0.025714773684740067, 0.1889139860868454, 0.07155671715736389, 0.07559969276189804, -0.0622263178229332, -0.27802032232284546, -0.1916680932044983, 0.10687421262264252], [-0.025666620582342148, 0.1489904522895813, -0.1277620792388916, -0.1162007600069046, 0.17948876321315765, -0.05549800768494606, -0.3360236883163452, -0.19419518113136292, -0.25701677799224854, -0.08311595022678375, -0.009826168417930603, -0.024316871538758278, -0.046302154660224915, -0.24706190824508667, 0.09531949460506439, -0.02257913164794445, -0.20336711406707764, -0.3943076431751251, -0.16962601244449615, -0.1717802733182907, 0.12602294981479645, -0.15837520360946655, -0.001453015604056418, -0.14713826775550842, -0.08247265219688416], [-0.1662359982728958, -0.1627182811498642, -0.12867330014705658, -0.021605122834444046, -0.11965200304985046, -0.09976918250322342, -0.08175638318061829, 0.14222757518291473, 0.16986790299415588, -0.05058244243264198, 0.23239649832248688, -0.12166726589202881, -0.04739152640104294, 0.02451491169631481, 0.17211247980594635, 0.0634855255484581, -0.1756710708141327, -0.08010370284318924, 0.0016622415278106928, -0.13839884102344513, -0.03848544880747795, -0.05988076329231262, 0.17069393396377563, -0.050011198967695236, 0.03759185969829559], [-0.06447277963161469, 0.00861210934817791, 0.1347314566373825, -0.26880618929862976, -0.1834987998008728, 0.05705505236983299, -0.10979059338569641, 0.18765726685523987, 0.03388606384396553, -0.06669033318758011, -0.192549929022789, -0.24156562983989716, -0.069395512342453, 0.03970230743288994, -0.29343393445014954, 0.10708719491958618, -0.007328442297875881, 0.19886337220668793, 0.06149241700768471, -0.16441433131694794, -0.16824525594711304, -0.1293511688709259, 0.20691849291324615, 0.06414308398962021, -0.039668407291173935], [0.033967431634664536, -0.012315794825553894, 0.15456309914588928, 0.05705961585044861, -0.256094753742218, 0.2240973562002182, -0.003718892578035593, 0.31374967098236084, 0.02766108140349388, -0.11288715898990631, 0.004416560288518667, -0.04503389075398445, 0.025868885219097137, -0.08171490579843521, -0.2538233697414398, -0.08082845062017441, 0.13427181541919708, 0.18073607981204987, 0.14286261796951294, -0.12301599979400635, 0.1101643443107605, 0.030056405812501907, -0.15946795046329498, 0.04449857771396637, 0.03557148948311806], [-0.11556962877511978, 0.05280139669775963, 0.06924083083868027, -0.012346671894192696, 0.19920839369297028, -0.375644326210022, 0.0056356145069003105, 0.14041709899902344, 0.06281763315200806, -0.238139808177948, -0.2758270502090454, -0.08521077781915665, -0.12890957295894623, -0.32616618275642395, -0.008978850208222866, -0.046058155596256256, 0.10966068506240845, -0.14951330423355103, -0.14376863837242126, -0.04418644309043884, 0.035495560616254807, -0.1638214886188507, 0.17920948565006256, 0.10450224578380585, -0.19855833053588867], [-0.038728393614292145, -0.15472061932086945, 0.027005229145288467, 0.1278042495250702, 0.0639907717704773, 0.04823867231607437, 0.06271912902593613, -0.0517183318734169, 0.011777357198297977, -0.04529023543000221, -0.0437062568962574, -0.14648358523845673, 0.10301586985588074, -0.16564252972602844, -0.07709823548793793, 0.08428193628787994, 0.19165945053100586, -0.17102475464344025, -0.06443102657794952, 0.17086245119571686, 0.0180800911039114, 0.0028426002245396376, 0.09351693093776703, -0.17626428604125977, 0.08227208256721497], [-0.017120691016316414, -0.12822505831718445, 0.09768323600292206, 0.11642242223024368, 0.16734884679317474, 0.13178731501102448, -0.02626255713403225, 0.28294917941093445, -0.2714097499847412, -0.18805105984210968, -0.1395711749792099, -0.4525761008262634, 0.029934111982584, -0.083904929459095, 0.0841195210814476, 0.010118963196873665, -0.1688510626554489, -0.011361525394022465, -0.04508787393569946, 0.14764899015426636, 0.0916285514831543, -0.1236262395977974, 0.2581953704357147, -0.019115310162305832, -0.05299592390656471], [-0.1295139342546463, 0.2818450331687927, -0.1506403535604477, -0.07243572920560837, -0.2168513834476471, 0.14044305682182312, 0.014777334406971931, -0.1572749763727188, 0.20550349354743958, 0.06693606078624725, -0.2097681313753128, 0.0918801873922348, 0.07626130431890488, -0.046339042484760284, -0.04970811679959297, -0.19850456714630127, -0.3148437738418579, -0.1317368447780609, 0.13286204636096954, 0.025764361023902893, 0.0038436681497842073, -0.15597738325595856, -0.12394273281097412, 0.14976952970027924, 0.11939375847578049], [-0.008323940448462963, 0.04106786102056503, -0.06053657457232475, 0.005512468051165342, 0.11976997554302216, 0.15792030096054077, 0.033516570925712585, 0.0880274549126625, 0.14788590371608734, 0.1856917440891266, 0.13685064017772675, 0.03374693915247917, -0.029485713690519333, 0.19077308475971222, 0.10405614972114563, 0.2244299352169037, 0.09942994266748428, 0.017172781750559807, -0.004882000852376223, -0.1317150741815567, -0.006903736386448145, -0.20163001120090485, 0.15681672096252441, 0.0759751945734024, -0.11593233048915863], [0.15858027338981628, -0.13232026994228363, 0.061426326632499695, -0.018926581367850304, 0.13611601293087006, 0.1481165736913681, -0.21022479236125946, 0.04095729440450668, -0.02344089187681675, 0.0704151839017868, 0.16541294753551483, -0.15703925490379333, 0.015722863376140594, -0.007050253450870514, 0.14593057334423065, -0.11737202852964401, 0.18002690374851227, -0.05223459377884865, -0.0340176597237587, 0.05744629725813866, 0.11056165397167206, -0.10111923515796661, -0.07448236644268036, -0.08595988154411316, 0.10883014649152756], [-0.14456698298454285, 0.16495126485824585, -0.021637260913848877, 0.17038075625896454, -0.11162836849689484, -0.21834245324134827, -0.3358268141746521, -0.19336044788360596, -0.1279609501361847, -0.03882208839058876, 0.11257835477590561, -0.4451226592063904, 0.1899152547121048, 0.13710464537143707, -0.03832074999809265, -0.09575609117746353, -0.07050254195928574, 0.24140524864196777, 0.20732074975967407, -0.12926822900772095, 0.07313308119773865, 0.041188642382621765, -0.16986994445323944, -0.006392929702997208, 0.21211707592010498], [-0.14542816579341888, 0.1737206131219864, 0.03066914714872837, -0.11734265089035034, 0.11121572554111481, -0.21187162399291992, 0.13951373100280762, 0.13540306687355042, 0.04736129939556122, 0.09802892059087753, -0.10309621691703796, 0.0005777973565272987, 0.015723813325166702, -0.1912841945886612, -0.14960767328739166, 0.11981120705604553, 0.06429654359817505, -0.06432263553142548, 0.05191640555858612, 0.09248175472021103, -0.018463831394910812, -0.09776006639003754, 0.027816323563456535, -0.015507323667407036, 0.16958333551883698], [0.1965121030807495, 0.13973018527030945, 0.11530611664056778, -0.04040050879120827, -0.04894192889332771, -0.10449166595935822, 0.04811912029981613, -0.27218717336654663, 0.07374213635921478, 0.10639867931604385, 0.07399694621562958, 0.0032534091733396053, -0.11983852833509445, 0.11179102957248688, 0.030723389238119125, -0.2112840712070465, 0.3767778277397156, 0.169317364692688, 0.24708402156829834, -0.03062731772661209, 0.07016954571008682, -0.12079477310180664, -0.20418252050876617, -0.04071054980158806, -0.2127046287059784], [-0.02307184971868992, -0.11353633552789688, 0.04765184596180916, 0.11498337239027023, 0.15749643743038177, 0.10238539427518845, 0.017530355602502823, -0.0583786778151989, 0.03717240318655968, -0.06287407875061035, 0.09329864382743835, -0.09962444752454758, -0.1903100162744522, 0.2137840837240219, -0.12359661608934402, -0.267190158367157, 0.17570407688617706, 0.24437883496284485, 0.06942486763000488, -0.10335865616798401, -0.015007986687123775, -0.2119971215724945, -0.23358139395713806, -0.09849821776151657, -0.09319090098142624], [-0.17544867098331451, 0.1219247430562973, 0.030818000435829163, -0.06899172812700272, 0.13691532611846924, -0.17655490338802338, 0.13337811827659607, 0.17974932491779327, 0.013472763821482658, -0.07313188165426254, -0.2468370944261551, 0.20513352751731873, -0.07441119849681854, -0.16918008029460907, 0.19403240084648132, -0.20240260660648346, 0.02404998429119587, 0.07424182444810867, -0.05497964099049568, 0.07805778831243515, 0.002093132585287094, -0.0725269764661789, 0.08175778388977051, -0.07184534519910812, 0.2038840651512146], [0.13865351676940918, -0.18838559091091156, -0.014163430780172348, -0.15483738481998444, -0.13554376363754272, -0.11327973008155823, -0.01842365972697735, 0.19266538321971893, 0.16105607151985168, -0.22777028381824493, 0.04169907048344612, -0.017699334770441055, 0.020289096981287003, 0.14092519879341125, -0.027814358472824097, 0.05113085359334946, -0.12929607927799225, 0.2024240791797638, -0.23563554883003235, 0.16238932311534882, 0.19874343276023865, -0.09681699424982071, -0.04712091386318207, 0.10192104429006577, -0.001784981694072485], [0.2077256739139557, 0.04049476236104965, -0.1429610252380371, 0.008338488638401031, -0.08744141459465027, 0.08980758488178253, -0.1803477555513382, 0.16523703932762146, 0.14162620902061462, -0.040007684379816055, -0.20279166102409363, -0.297195702791214, -0.04763155058026314, -0.3901234269142151, -0.061600327491760254, -0.008477515541017056, -0.42060160636901855, 0.08180401474237442, -0.3635850250720978, -0.1895270198583603, 0.012970004230737686, -0.13148103654384613, 0.023941250517964363, 0.05806918442249298, 0.04340696334838867]], "fc1_bias": [0.16629518568515778, -0.19600382447242737, 0.18300819396972656, 0.06767182797193527, 0.18480680882930756, 0.08197931200265884, -0.07949461042881012, -0.08371035754680634, -0.11713765561580658, 0.01723722368478775, 0.12044455111026764, -0.1330840140581131, 0.12702137231826782, -0.09285514801740646, -0.19657613337039948, 0.04518590494990349, 0.09305937588214874, -0.22627140581607819, -0.15485112369060516, -0.18328583240509033, -0.1097010150551796, -0.15813438594341278, -0.10421895980834961, -0.10381342470645905, 0.06113704666495323, 0.15618222951889038, -0.022477582097053528, 0.1630493402481079, -0.23552481830120087, -0.020253265276551247, -0.11157557368278503, -0.11655835062265396, 0.20471417903900146, -0.2560023069381714, -0.0538349524140358, -0.2066022753715515, -0.04955755174160004, -0.020517846569418907, 0.12042943388223648, 0.02556546777486801, -0.07829861342906952, 0.013852192088961601, 0.21074505150318146, -0.17744013667106628, 0.12287969887256622, -0.2351243793964386, 0.06896506994962692, -0.05499309301376343, -0.21298828721046448, -0.11827981472015381, 0.1461312472820282, 0.184870183467865, 0.13783784210681915, -0.1007404699921608, -0.19367703795433044, -0.044951777905225754, 0.1641087383031845, -0.2197417914867401, -0.04118824005126953, 0.039473630487918854, 0.12504088878631592, 0.0994483157992363, 0.0811270922422409, -0.13280707597732544], "fc2_weight": [[0.06837213039398193, -0.029759114608168602, 0.08118534833192825, 0.13449524343013763, 0.04326868802309036, -0.05777142569422722, -0.09173759818077087, 0.08311533182859421, 0.12011630833148956, -0.020043157041072845, 0.05558061599731445, -0.2026829868555069, 0.13582701981067657, -0.08120272308588028, 0.005589943844825029, 0.012496475130319595, 0.11640164256095886, 0.1323104202747345, -0.10636723786592484, -0.07522784173488617, 0.1491679847240448, -0.03435952216386795, -0.025427578017115593, 0.21140515804290771, 0.13970884680747986, -0.059226978570222855, 0.07462166249752045, 0.08433104306459427, 0.1269790232181549, -0.18427884578704834, 0.018677843734622, 0.16338446736335754, 0.1208280473947525, 0.05987578630447388, -0.02340197190642357, 0.011959366500377655, 0.13681574165821075, -0.18841208517551422, -0.12559789419174194, 0.06560922414064407, 0.09847422689199448, 0.11363817006349564, -0.0887283980846405, 0.14253932237625122, -0.20368850231170654, -0.09939169138669968, -0.1779768466949463, 0.1533789485692978, -0.15685789287090302, -0.07197242975234985, 0.04622459039092064, -0.2336488664150238, 0.018066028133034706, -0.020238880068063736, 0.11693468689918518, 0.11074041575193405, -0.04638233408331871, 0.20064255595207214, -0.06618404388427734, 0.003199944971129298, -0.16184762120246887, -0.06533211469650269, 0.015691004693508148, 0.04423702508211136], [0.06909511983394623, -0.017617009580135345, -0.006074737291783094, -0.09418361634016037, -0.017499545589089394, 0.15345552563667297, 0.10352814197540283, -0.02026602067053318, 0.051538072526454926, 0.07516331225633621, 0.08175963908433914, 0.13611575961112976, -0.22361180186271667, 0.12173739820718765, -0.008393209427595139, -0.21005947887897491, -0.05201343819499016, -0.15642701089382172, 0.06690091639757156, 0.0019795859698206186, -0.17535871267318726, -0.17124877870082855, -0.011384433135390282, -0.12765146791934967, 0.0366630032658577, 0.07984868437051773, -0.17640987038612366, -0.09416306018829346, -0.1612870991230011, -0.0218952726572752, -0.1512036919593811, -0.04840575531125069, -0.09752436727285385, -0.11308025568723679, 6.130212568677962e-05, 0.03999049961566925, -0.08596299588680267, -0.05569691210985184, -0.04246111586689949, -0.014564004726707935, 0.036517973989248276, -0.11609212309122086, 0.11608045548200607, 0.09614895284175873, -0.013759437948465347, 0.15503738820552826, 0.0062424130737781525, -0.2500910758972168, -0.08304581791162491, -0.1406300663948059, 0.08829982578754425, -0.27419722080230713, 0.022704169154167175, 0.05228986218571663, 0.1127958819270134, 0.07358071208000183, 0.0706653967499733, -0.18391352891921997, 0.10017626732587814, -0.11590961366891861, -0.08653491735458374, 0.07092473655939102, 0.13485495746135712, 0.013472084887325764], [0.011809400282800198, 0.07342492789030075, -0.08028438687324524, -0.03606308996677399, 0.15057037770748138, 0.10040245205163956, 0.026457522064447403, -0.033569857478141785, -0.1095581129193306, 0.18934287130832672, 0.004533913917839527, 0.16406822204589844, 0.08812383562326431, 0.08857601135969162, 0.005197327118366957, -0.1805599331855774, 0.0981268435716629, -0.0819467306137085, -0.08252013474702835, -0.13824163377285004, -0.14894205331802368, 0.11957205832004547, 0.02729220688343048, -0.2718829810619354, -0.09253888577222824, 0.11031172424554825, -0.05228687450289726, 0.03090498223900795, -0.1125485897064209, 0.2068355828523636, -0.19603395462036133, -0.14288683235645294, -0.06145459786057472, -0.17566165328025818, -0.05675817281007767, 0.15321941673755646, -0.2732028663158417, 0.2892683744430542, 0.1163690909743309, -0.003405242692679167, -0.046206023544073105, -0.09338109195232391, 0.035265129059553146, 0.05146055668592453, 0.17179687321186066, 0.19053150713443756, 0.11796236038208008, -0.16545522212982178, -0.09842628985643387, 0.004681332968175411, -0.04792590066790581, -0.11215390264987946, 0.12096715718507767, -0.036251600831747055, -0.04853636026382446, 0.09526002407073975, -0.09329213201999664, -0.1454923003911972, 0.07742328941822052, -0.008653715252876282, 0.14304664731025696, 0.2234262079000473, 0.13679702579975128, -0.3091433346271515], [0.10149168223142624, -0.0950549840927124, -0.09709297865629196, 0.03239475190639496, 0.0634581595659256, 0.03268834948539734, -0.10142633318901062, 0.07357147336006165, -0.054695647209882736, -0.20529717206954956, -0.01788782887160778, -0.013590226881206036, 0.055116940289735794, -0.0721503496170044, 0.03349214792251587, 0.1436215490102768, -0.015115411020815372, 0.011150086298584938, -0.07683870941400528, -0.0008560287533327937, -0.012960685417056084, 0.03094467520713806, 0.06595540046691895, 0.006959893740713596, 0.08199024200439453, -0.1538616418838501, -0.10989104956388474, -0.05567663908004761, 0.17620575428009033, -0.10268367826938629, 0.0766720399260521, 0.23772087693214417, 0.06800926476716995, -0.024403870105743408, -0.038853224366903305, -0.14432071149349213, 0.05458143725991249, -0.002913146745413542, -0.023651575669646263, -0.0037804655730724335, 0.10198713839054108, -0.01994997449219227, 0.13015258312225342, -0.09703485667705536, -0.2280723750591278, -0.1753864586353302, -0.001672942889854312, -0.04823274537920952, 0.09600459784269333, 0.042597800493240356, -0.05358900874853134, -0.07631248235702515, 0.08969499170780182, -0.00915869977325201, 0.11504191905260086, 0.1450614482164383, 0.08175776153802872, 0.012629151344299316, 0.12635484337806702, -0.039062902331352234, -0.045769285410642624, -0.013352256268262863, -0.09899836033582687, 0.048880986869335175], [-0.09198731929063797, 0.06876220554113388, 0.03981305658817291, 0.04191729798913002, 0.02230159379541874, 0.016262251883745193, -0.13083942234516144, -0.2475694864988327, -0.07351405918598175, -0.11655281484127045, -0.014763540588319302, -0.13541078567504883, 0.1647564172744751, 0.06901814788579941, 0.16059260070323944, 0.07734597474336624, -0.03991849347949028, 0.13273131847381592, -0.1557348370552063, -0.025908343493938446, -0.08184126764535904, -0.20241856575012207, -0.0006300388486124575, -0.267377108335495, -0.013280035927891731, 0.06857672333717346, 0.09942314028739929, -0.19896531105041504, -0.024521121755242348, 0.00602672528475523, -0.09715434908866882, -0.043657947331666946, 0.08084789663553238, -0.09778857231140137, 0.20441795885562897, 0.13030968606472015, -0.009836276061832905, -0.0602671355009079, -0.09460655599832535, -0.11811959743499756, 0.08051726222038269, -0.10972202569246292, -0.08088817447423935, -0.05069084092974663, 0.05476574972271919, 0.1130579486489296, 0.1436855047941208, -0.1544347107410431, -0.04673418402671814, -0.10030008107423782, 0.05977582186460495, -0.045895908027887344, 0.00874883122742176, 0.08759378641843796, -0.0591922253370285, 0.04557943716645241, 0.06925756484270096, -0.273347944021225, 0.0001880486379377544, 0.13819871842861176, 0.11750885099172592, -0.12163727730512619, 0.029583005234599113, -0.13972587883472443], [0.04555358365178108, -0.15714573860168457, 0.009701468050479889, 0.1063745841383934, 0.09479305893182755, 0.01772463321685791, 0.09517745673656464, -0.09355814754962921, -0.010834548622369766, 0.004405048210173845, -0.1237020418047905, -0.0068968902342021465, -0.0020016878843307495, -0.13023698329925537, 0.14750482141971588, -0.0064444150775671005, 0.0884544774889946, -0.00623703096061945, 0.05007440224289894, -0.020651061087846756, -0.08227527886629105, 0.006845154333859682, -0.08532270044088364, 0.09407824277877808, 0.15477444231510162, 0.02670896053314209, 0.18272969126701355, 0.19116725027561188, 0.10577833652496338, -0.23817315697669983, -0.07346756756305695, 0.16780982911586761, 0.07545815408229828, -0.06919664889574051, -0.053927596658468246, 0.0186146292835474, 0.17154084146022797, -0.15646326541900635, -0.1508411318063736, -0.01994594745337963, -0.2007579803466797, 0.11778198927640915, -0.10860351473093033, 0.07998733222484589, -0.09763523191213608, 0.04482787102460861, -0.04729147255420685, 0.10714296996593475, -0.13590693473815918, -0.12505455315113068, -0.05064230412244797, -0.1040085107088089, 0.053259290754795074, 0.030844571068882942, 0.21118737757205963, -0.1092148870229721, 0.06993627548217773, 0.019702089950442314, -0.018918758258223534, 0.04069414734840393, 0.0369601733982563, 0.09526538103818893, 0.15071243047714233, -0.06377438455820084], [-0.1645382195711136, -0.11904934048652649, 0.07353907078504562, 0.04642922058701515, -0.034840263426303864, 0.08320984989404678, 0.002835487248376012, -0.05696694552898407, 0.05378548800945282, -0.12892358005046844, 0.08483784645795822, -0.2123190462589264, -0.05765148997306824, 0.1285579651594162, -0.0916939377784729, -0.1681371033191681, -0.07428351044654846, 0.0569702610373497, -0.22990402579307556, -0.09485964477062225, 0.11569161713123322, -0.16359694302082062, -0.1681273728609085, -0.46797263622283936, 0.015394721180200577, 0.011742629110813141, -0.015944411978125572, 0.10205297917127609, -0.11931708455085754, 0.07655567675828934, -0.10320322960615158, -0.00441450159996748, -0.010007250122725964, 0.06772080063819885, 0.14762620627880096, -0.07555059343576431, -0.21313515305519104, -0.04496830329298973, -0.1558813899755478, -0.04425647109746933, 0.07708671689033508, -0.03671897202730179, -0.04740716516971588, 0.05218628793954849, 0.05819253250956535, 0.14507845044136047, 0.08872415870428085, -0.2589062750339508, 0.00529648968949914, -0.011926530860364437, 0.10662895441055298, 0.14561495184898376, -0.005286796949803829, 0.12705568969249725, -0.05974328890442848, 0.046901118010282516, 0.11061231046915054, -0.23036512732505798, -0.1240985244512558, -0.08961469680070877, 0.003844296559691429, -0.11774048209190369, 0.10222750157117844, 0.019928380846977234], [0.02802378498017788, -0.09931430965662003, 0.153978630900383, 0.011441696435213089, -0.04274705424904823, -0.030359873548150063, 0.07925122231245041, 0.1511271595954895, -0.10319287329912186, 0.1380092054605484, -0.09573039412498474, 0.08278714865446091, 0.11248690634965897, -0.06571833044290543, 0.04435170441865921, 0.12194164842367172, -0.061972178518772125, -0.08335856348276138, 0.04113804176449776, -0.0036098218988627195, 0.025705935433506966, -0.04094396531581879, -0.10185151547193527, 0.20232394337654114, -0.09596237540245056, 0.07018451392650604, 0.0442577563226223, 0.09020082652568817, 0.02948184870183468, -0.05807902291417122, -0.04178516939282417, 0.201334148645401, 0.14746928215026855, 0.07686220854520798, -0.1451488733291626, 0.05531768500804901, 0.0938153862953186, -0.15689179301261902, 0.0046798414550721645, 0.019738780334591866, 0.08888912945985794, -0.04787438362836838, -0.07813186198472977, 0.05284397304058075, -0.1678341180086136, 0.12202991545200348, 0.013889363966882229, 0.15539473295211792, 0.051178641617298126, 0.13017502427101135, 0.021515481173992157, 0.03974305838346481, 0.013897404074668884, 0.11152786761522293, -0.06686770170927048, -0.05854230746626854, -0.009138152003288269, -0.011241945438086987, 0.13926875591278076, -0.19803586602210999, -0.08981193602085114, -0.07084784656763077, -0.017873456701636314, 0.09452024102210999], [0.08382883667945862, -0.1084730252623558, 0.112621009349823, -0.013799670152366161, 0.12131763249635696, 0.13039422035217285, 0.03394404798746109, -0.02640664577484131, 0.049712955951690674, 0.15152856707572937, -0.026361847296357155, 0.015562630258500576, -0.07914286106824875, 0.13397018611431122, 0.08134950697422028, -0.054443102329969406, -0.02364332787692547, 0.07473669946193695, 0.12993744015693665, 0.0312211774289608, -0.07334546744823456, 0.058810874819755554, 0.05362233519554138, -0.001452140393666923, -0.05279777571558952, -0.1114388108253479, -0.12534528970718384, -0.026107216253876686, 0.0487704873085022, 0.1541530042886734, -0.04173917695879936, -0.12492841482162476, -0.042088109999895096, 0.04148012399673462, -0.031648118048906326, 0.0961376503109932, -0.2131001353263855, 0.1917402148246765, 0.0673334151506424, 0.10470902174711227, 0.08201573044061661, 0.06315555423498154, 0.005812348332256079, -0.04970601573586464, -0.04899565875530243, 0.1723577082157135, -0.008570687845349312, -0.20264804363250732, 0.04936299845576286, -0.07051926851272583, 0.05654112622141838, -0.09681923687458038, -0.06761078536510468, 0.012020003981888294, -0.0635509043931961, -0.09697549790143967, -0.053032033145427704, 0.016126669943332672, -0.06615237146615982, 0.06486707180738449, 0.0828855112195015, 0.11341682076454163, -0.022601956501603127, -0.2791624367237091], [0.0030636596493422985, -0.02233239822089672, -0.033373378217220306, 0.15004616975784302, -0.12977786362171173, 0.04574907198548317, -0.10589712113142014, 0.05120450258255005, 0.12073145806789398, -0.06999987363815308, 0.06851562857627869, -0.17002317309379578, 0.03360753878951073, -0.027068382129073143, 0.11677276343107224, 0.1573304831981659, 0.06620623916387558, 0.10703077912330627, -0.103514663875103, -0.06348967552185059, 0.03228861838579178, 0.060153864324092865, 0.07326734066009521, 0.14636434614658356, -0.07800931483507156, -0.06058023124933243, -0.011736471205949783, 0.1276915818452835, 0.1174510195851326, -0.09951359778642654, 0.135951429605484, 0.16064400970935822, 0.018000071868300438, 0.040479257702827454, -0.07861776649951935, -0.08699318766593933, -0.02747538313269615, -0.07458674162626266, 0.09745786339044571, 0.02794186770915985, 0.007126478478312492, 0.11089549958705902, -0.01879257522523403, 0.030821584165096283, -0.24433228373527527, -0.15008963644504547, -0.10250619798898697, 0.08491366356611252, 0.022380094975233078, 0.05841760337352753, 0.04985472187399864, 0.0092988396063447, -0.04194541275501251, 0.11623086035251617, 0.09331152588129044, 0.10224298387765884, 0.041579682379961014, 0.0852607786655426, 0.0482751689851284, 0.022770432755351067, -0.06379136443138123, -0.15635405480861664, -0.15455426275730133, 0.11913055926561356], [0.14848065376281738, 0.032393231987953186, 0.21486063301563263, 0.05072598159313202, 0.09522901475429535, 0.011618104763329029, 0.060416970402002335, 0.06479056179523468, -0.08233682811260223, 0.17905940115451813, 0.042643383145332336, 0.010174754075706005, -0.04189455136656761, -0.14614041149616241, -0.044978439807891846, 0.050218433141708374, 0.06151076778769493, 0.13400352001190186, 0.08127836883068085, -0.0024867814499884844, 0.04956859350204468, -0.07593129575252533, -0.07691323012113571, 0.22606255114078522, 0.06513801962137222, 0.011993197724223137, -0.06441888213157654, 0.13045434653759003, 0.13569830358028412, 0.09470309317111969, 0.13295088708400726, 0.04819701984524727, 0.04368740692734718, -0.08375482261180878, -0.044901762157678604, 0.06771398335695267, 0.10972172766923904, -0.2547690272331238, -0.12122675776481628, -0.14446358382701874, -0.0455101914703846, 0.1187651976943016, -0.06554577499628067, -0.22313839197158813, -0.2074088305234909, 0.05190461128950119, 0.14952610433101654, 0.03052353486418724, -0.15087971091270447, 0.13784947991371155, -0.2140386998653412, 0.030100569128990173, -0.014261519536376, 0.18062806129455566, -0.0727606862783432, 0.04325898736715317, 0.08753892034292221, -0.05628727003931999, -0.0472923219203949, -0.24193893373012543, -0.0906945988535881, 0.025589169934391975, -0.08112043887376785, -0.02759522944688797], [0.050996072590351105, 0.04828791320323944, -0.3296828269958496, 0.08783502131700516, -0.16809898614883423, -0.10259902477264404, 0.0981508418917656, 0.050323933362960815, -0.1453123539686203, 0.06599249690771103, -0.006938169244676828, 0.17288078367710114, 0.1778596192598343, 0.0030211748089641333, 0.055758845061063766, 0.08617237210273743, -0.053996775299310684, 0.1832076907157898, 0.07851080596446991, -0.2215651124715805, 0.049820803105831146, 0.0010692570358514786, -0.05752784013748169, -0.13981015980243683, -0.011044432409107685, -0.016710419207811356, 0.2399298995733261, 0.07951603084802628, 0.04466787353157997, 0.08914893865585327, 0.17660818994045258, -0.28199729323387146, 0.07611361891031265, 0.08329229056835175, -0.03339604660868645, -0.09838011860847473, 0.051744427531957626, 0.27589094638824463, 0.04580506682395935, -0.05473239719867706, -0.09503521770238876, -0.08331423997879028, -0.06426673382520676, 0.12075094878673553, 0.20838549733161926, -0.2908112406730652, 0.04329373314976692, 0.20930849015712738, 0.15281875431537628, 0.014728999696671963, 0.06930115073919296, 0.1799715757369995, -0.14356590807437897, -0.002492587547749281, -0.030424946919083595, -0.15076619386672974, -0.01978369429707527, -0.037378959357738495, 0.0014434284530580044, 0.08033100515604019, 0.050635166466236115, -0.12751150131225586, -0.16277465224266052, 0.06322937458753586], [0.09260158240795135, 0.023599406704306602, 0.06508234888315201, -0.04080598056316376, -0.02858613058924675, -0.06108557805418968, -0.125395268201828, -0.13477879762649536, -0.035634640604257584, 0.10638358443975449, 0.10318202525377274, 0.17037682235240936, 0.007056741509586573, 0.2930464744567871, -0.05890679731965065, 0.04324061796069145, -0.20250706374645233, 0.11599083989858627, 0.04011347144842148, -0.13801850378513336, -0.061892952769994736, 0.05268491059541702, -0.09781603515148163, -0.2572728395462036, -0.0048700436018407345, 0.0701468214392662, 0.12989996373653412, -0.1271461695432663, -0.09305919706821442, -0.044570524245500565, -0.017751533538103104, -0.11949794739484787, 0.07747665047645569, -0.04633220657706261, 0.02282673679292202, 0.1047779992222786, -0.00032734358683228493, 0.20113196969032288, -0.0015996897127479315, -0.015220408327877522, -0.030716922134160995, -0.03185533732175827, 0.05959904193878174, -0.134604811668396, 0.14709463715553284, 0.012541212141513824, 0.06861484050750732, -0.14823868870735168, -0.03318154066801071, -0.08449644595384598, 0.10367412120103836, -0.0023485494311898947, -0.10172028094530106, 0.02417617477476597, -0.06116103008389473, 0.0456545315682888, 0.006886846385896206, -0.0159152764827013, -0.10684487223625183, 0.1476321667432785, 0.14168329536914825, 0.15054896473884583, -0.027601471170783043, -0.25426656007766724], [0.06648735702037811, 0.02916744165122509, 0.14517569541931152, -0.005072586704045534, 0.034305162727832794, -0.12578941881656647, 0.10740754008293152, -0.22802694141864777, -0.05172870308160782, 0.20797385275363922, -0.10900932550430298, 0.06900865584611893, 0.10605316609144211, 0.22404640913009644, -0.1492554396390915, 0.07920993864536285, 0.05696326121687889, -0.061179012060165405, 0.13918423652648926, 0.17093899846076965, 0.08352532982826233, -0.22494277358055115, -0.10947775095701218, -0.2270447164773941, 0.16753685474395752, -0.14471717178821564, -0.15783901512622833, 0.01286489050835371, 0.11431769281625748, 0.04367075115442276, 0.16056202352046967, -0.32019734382629395, -0.06494049727916718, 0.13195915520191193, 0.00844050943851471, -0.23717598617076874, -0.1943362057209015, 0.13786131143569946, -0.05556498467922211, 0.08702614903450012, -0.15631034970283508, 0.09101639688014984, -0.05211995169520378, -0.040154535323381424, 0.21101753413677216, -0.2282085418701172, -0.18781089782714844, -0.27998849749565125, -0.0034315099474042654, -0.28879237174987793, 0.12323974817991257, 0.05960029736161232, 0.03132914751768112, -0.08705153316259384, 0.01691978983581066, -0.04707411676645279, -0.13352490961551666, -0.0932236835360527, -0.1622137725353241, 0.12450993061065674, 0.19676023721694946, 0.04192093014717102, -0.2112680971622467, -0.15454797446727753], [-0.017882030457258224, -0.0030591406393796206, -0.04657438397407532, -0.054157860577106476, 0.10971910506486893, 0.14394138753414154, 0.12026859819889069, -0.005182676482945681, -0.04014763981103897, 0.18712906539440155, 0.0541008785367012, -0.03186891973018646, 0.06520447880029678, 0.15622134506702423, -0.027133893221616745, -0.0884997621178627, -0.08982512354850769, 0.03450899198651314, 0.11629214882850647, -0.17034947872161865, -0.06984598934650421, -0.014035950414836407, -0.05642157047986984, -0.32450157403945923, -0.08017192780971527, 0.08743427693843842, -0.09105166047811508, 0.030261214822530746, -0.06409011781215668, 0.17199532687664032, -0.04715631902217865, -0.15806064009666443, 0.08835962414741516, -0.07594600319862366, 0.05049911513924599, 0.16331438720226288, -0.14615993201732635, 0.04757223650813103, 0.10072938352823257, 0.0063089849427342415, 0.07737620919942856, -0.005615505389869213, -0.020813295617699623, -0.08985237032175064, 0.24270105361938477, -0.010008638724684715, 0.22886240482330322, -0.16082540154457092, -0.06495692580938339, -0.21316319704055786, -0.011543162167072296, -0.036829009652137756, -0.07425785064697266, -0.13077382743358612, 0.03327314555644989, -0.11184750497341156, 0.07285169512033463, -0.22664016485214233, 0.02320197783410549, 0.07526212930679321, 0.05497633293271065, 0.11110653728246689, 0.02607804909348488, -0.2305399626493454], [0.050436556339263916, -0.056577347218990326, -0.07194455713033676, 0.03148065507411957, 0.1466757357120514, 0.04555296525359154, 0.03266392648220062, -0.06953674554824829, -0.06979870051145554, 0.1168312057852745, -0.17200148105621338, 0.042109645903110504, 0.1076759397983551, -0.09652648866176605, -0.1531771868467331, 0.0670742467045784, -0.11315684765577316, -0.025017190724611282, 0.15470106899738312, 0.1398688405752182, -0.11854024231433868, -0.013109133578836918, 0.018676016479730606, -0.11293879896402359, 0.12128451466560364, -0.018015339970588684, 0.04456983879208565, 0.030115611851215363, 0.08494291454553604, -0.20431333780288696, -0.11932262033224106, 0.2474304735660553, -0.0488358698785305, 0.10153119266033173, -0.1462128907442093, 0.026553209871053696, 0.1521640568971634, -0.22055335342884064, -0.005435611121356487, 0.13240237534046173, -0.17816275358200073, -0.03258785232901573, -0.114980548620224, -0.07301939278841019, -0.017110569402575493, 0.021403148770332336, -0.19174405932426453, 0.07845868915319443, -0.016579432412981987, -0.06467420607805252, -0.08928853273391724, -0.14910632371902466, -0.10686692595481873, 0.14972443878650665, 0.2035476714372635, -0.05192828178405762, 0.05421453341841698, 0.050880275666713715, -0.14357052743434906, 0.11643021553754807, 0.09853851050138474, -0.14918147027492523, 0.047814514487981796, 0.01813087984919548], [-0.0193936787545681, -0.04040199890732765, -0.1126842200756073, -0.007575610186904669, 0.055071666836738586, -0.04641150310635567, 0.10810207575559616, 0.1259593814611435, -0.08674941211938858, -0.036671847105026245, 0.07911065965890884, 0.031887974590063095, 0.11676686257123947, -0.023380642756819725, -0.050922539085149765, 0.13268184661865234, 0.07384441792964935, 0.03654331713914871, -0.03131787106394768, -0.04945075884461403, -0.006839921232312918, -0.042369626462459564, -0.10239790380001068, 0.06261591613292694, -0.018734099343419075, 0.07881706207990646, -0.07251972705125809, 0.09525927901268005, -0.06843473762273788, -0.3002055883407593, 0.09928686171770096, -0.04420432448387146, 0.05723321810364723, 0.015012083575129509, -0.022922147065401077, -0.25511619448661804, 0.06997867673635483, 0.08932417631149292, 0.06324849277734756, 0.029657384380698204, 0.07754548639059067, -0.05439379811286926, -0.1518288105726242, 0.03793724253773689, 0.01789853163063526, 0.09520897269248962, -0.11375152319669724, -0.0009293524199165404, -0.12898384034633636, -0.16476404666900635, -0.15120065212249756, -0.10076417773962021, 0.056778110563755035, 0.0707482099533081, -0.1835467517375946, 0.06301752477884293, -0.0032844904344528913, -0.06134430691599846, 0.0873517319560051, -0.04750404879450798, -0.12526863813400269, -0.011389695107936859, 0.045687027275562286, -0.008993137627840042], [0.04136662185192108, -0.026683224365115166, 0.0534946583211422, -0.03129978105425835, 0.1003478467464447, -0.1890825480222702, -0.03657211363315582, -0.09444757550954819, -0.1168559342622757, -0.009441466070711613, 0.036335837095975876, 0.029399780556559563, 0.03488675504922867, -0.22898103296756744, 0.1203768327832222, 0.011348980478942394, 0.08667004108428955, -0.05049094930291176, -0.02740507200360298, -0.05481922626495361, 0.05862494185566902, -0.13567185401916504, 0.08331369608640671, 0.15607506036758423, 0.16625450551509857, 0.12827454507350922, -0.21824754774570465, 0.13255354762077332, -0.12853078544139862, -0.24305254220962524, 0.19054904580116272, 0.00373088545165956, 0.10679984092712402, -0.1320277452468872, -0.1035463884472847, 0.06714635342359543, -0.026406513527035713, 0.05304916203022003, 0.02660340443253517, 0.023816803470253944, -0.0542135015130043, 0.03761008009314537, -0.06947396695613861, 0.021348316222429276, 0.025923529639840126, 0.14000727236270905, 0.01906503736972809, -0.15411055088043213, -0.049843426793813705, -0.03122277371585369, -0.060311030596494675, -0.061484403908252716, -0.004398193676024675, 0.046583302319049835, 0.03635376691818237, 0.0782424584031105, -0.0713067576289177, 0.15488699078559875, 0.020826809108257294, 0.17598964273929596, 0.016410550102591515, -0.06289015710353851, 0.0721956416964531, 0.0464995875954628], [0.1978151500225067, 0.04553757607936859, 0.14072205126285553, -0.04440523684024811, -0.0070398058742284775, 0.0026219473220407963, 0.04184221848845482, 0.005009546410292387, -0.07141279429197311, 0.21420818567276, 0.017942244186997414, 0.010962678119540215, 0.034172285348176956, -0.024255208671092987, -0.101359523832798, 0.05874462053179741, 0.11200129985809326, -0.033538516610860825, 0.012954640202224255, 0.014047130011022091, -0.0912347063422203, -0.02079695835709572, -0.008979308418929577, 0.17544911801815033, 0.05230487138032913, 0.12758450210094452, 0.012030447833240032, 0.06673787534236908, -0.05454961210489273, -0.03477456420660019, -0.09650428593158722, 0.10717209428548813, -0.005719599314033985, -0.08367591351270676, -0.18752901256084442, 0.16084247827529907, 0.1330404132604599, -0.22501970827579498, -0.06507278233766556, -0.029759211465716362, -0.12605899572372437, 0.030405424535274506, -0.210243821144104, -0.1077079251408577, -0.06771055608987808, 0.13445869088172913, -0.028630737215280533, 0.07777385413646698, -0.10702130198478699, 0.10483139753341675, 0.05779195949435234, 0.07737225294113159, 0.011400396935641766, 0.10591954737901688, 0.025282204151153564, -0.21018929779529572, 0.09844288975000381, 0.08783061057329178, -0.05022498592734337, 0.07072897255420685, -0.0020408497657626867, 0.03626137599349022, 5.6030447012744844e-05, 0.08384548872709274], [0.15898723900318146, -0.19620782136917114, 0.07065242528915405, 0.034779515117406845, -0.018267763778567314, 0.13256235420703888, 0.04326896741986275, 0.009241798892617226, 0.11188515275716782, -0.045151352882385254, -0.2283095419406891, 0.02522898092865944, 0.11829891055822372, -0.07947994023561478, -0.019151754677295685, 0.11226852238178253, 0.09728691726922989, 0.021381698548793793, -0.01933942921459675, 0.1094597652554512, -0.05617034062743187, 0.1566605567932129, -0.021394800394773483, 0.039649397134780884, 0.04687106981873512, 0.13567236065864563, 0.15793462097644806, 0.03752652183175087, 0.022449109703302383, -0.23156312108039856, -0.16811443865299225, 0.11080148816108704, -0.06773602217435837, -0.10834760963916779, -0.1550852507352829, -0.004880097229033709, 0.2008465975522995, -0.061048638075590134, -0.27026185393333435, -0.07867372035980225, -0.05472502484917641, 0.026117825880646706, -0.07613680511713028, -0.10165286064147949, 0.07076772302389145, 0.17936691641807556, 0.0040818387642502785, 0.19236427545547485, 0.03782069683074951, -0.0446566604077816, -0.2690591812133789, 0.0411137118935585, 0.04694404453039169, 0.061317700892686844, 0.061523742973804474, -0.10241562873125076, -0.0676099881529808, 0.18047533929347992, 0.06958169490098953, -0.1615559160709381, 0.1050986647605896, 0.05283120274543762, -0.023497458547353745, -0.0908314660191536], [0.0027743191458284855, 0.054861512035131454, 0.11136315017938614, -0.02936604991555214, 0.004764467943459749, 0.07803831249475479, 0.020434655249118805, 0.030844373628497124, -0.01021538395434618, 0.15403929352760315, -0.1942528933286667, -0.017732802778482437, 0.1532733142375946, -0.0742802768945694, -0.12078246474266052, 0.0552162304520607, 0.03107677958905697, 0.06052900105714798, 0.12021840363740921, 0.20297540724277496, -0.053277261555194855, 0.22659903764724731, -0.032997287809848785, -0.0510086864233017, 0.10342395305633545, 0.03276612237095833, 0.03346743807196617, -0.08236151188611984, -0.04677143692970276, -0.1661941111087799, -0.1122511699795723, 0.22845806181430817, 0.18717189133167267, 0.12045080214738846, -0.2791697680950165, 0.04075384512543678, -0.07391192018985748, -0.20469930768013, -0.23356427252292633, 0.05417747423052788, -0.04810682684183121, -0.181036114692688, -0.12456090748310089, -0.0909905657172203, -0.10674864053726196, 0.01551548670977354, 0.08337913453578949, 0.08056389540433884, -0.10059105604887009, 0.19009481370449066, 0.00998312421143055, -0.1701851189136505, -0.10575920343399048, 0.10088679939508438, -0.004964636638760567, 0.022556008771061897, 0.09209249913692474, 0.0691879391670227, 0.03517124801874161, -0.10076158493757248, 0.11293002218008041, 0.1008826270699501, 0.04160197079181671, 0.08294215798377991], [0.008150155656039715, 0.05794532969594002, -0.0588686503469944, 0.05889321118593216, 0.00017680786550045013, -0.04207180067896843, -0.004893362056463957, -0.025394676253199577, 0.04194594547152519, -0.19332455098628998, -0.021263252943754196, -0.1150175929069519, 0.1209205910563469, -0.1431315392255783, -0.1878519207239151, 0.15601126849651337, 0.024803565815091133, 0.12146513909101486, -0.13375481963157654, -0.07558853924274445, 0.16223472356796265, -0.08186378329992294, -0.12394025921821594, -0.011041807010769844, -0.019358929246664047, 0.1520460993051529, -0.1372329443693161, 0.015637686476111412, 0.10056522488594055, 0.08359182626008987, 0.13741055130958557, 0.03925903141498566, 0.05407465621829033, -0.03653682768344879, 0.045463066548109055, 0.05375688895583153, 0.027755873277783394, -0.1272338479757309, 0.044367555528879166, -0.15869659185409546, 0.13045360147953033, 0.004889058414846659, 0.10623670369386673, 0.14058968424797058, -0.21470579504966736, -0.01770133525133133, -0.16910496354103088, 0.170040100812912, -0.04857940226793289, 0.19207312166690826, 0.063616544008255, -0.19253425300121307, -0.12627650797367096, 0.0887332633137703, 0.05106610059738159, -0.05465836822986603, -0.10721022635698318, 0.16979439556598663, 0.09482176601886749, -0.1594519317150116, -0.14987076818943024, 0.06723549962043762, 0.0790267214179039, 0.06912054866552353], [0.12937362492084503, -0.003421013243496418, 0.01895429939031601, -0.013389279134571552, -0.012666632421314716, -0.16144223511219025, 0.054903820157051086, 0.16674572229385376, -0.02427864819765091, -0.08531457185745239, 0.05801782011985779, -0.15397676825523376, -0.04677388072013855, -0.07205849885940552, 0.08268700540065765, 0.058225229382514954, 0.11822391301393509, 0.08496329933404922, -0.04199482128024101, -0.008335785940289497, 0.1504434496164322, 0.05018673092126846, 0.07438621670007706, 0.1220160573720932, 0.07301101088523865, -0.05800565704703331, 0.08254864066839218, 0.14388927817344666, 0.06472884118556976, -0.08844740688800812, 0.10521236807107925, 0.14200475811958313, 0.028271200135350227, 0.08989327400922775, -0.04924309626221657, 0.012925251387059689, 0.057473745197057724, -0.19532351195812225, -0.0025738494005054235, 0.017856905236840248, 0.0751483365893364, 0.13667696714401245, -0.0320446714758873, 0.0706402137875557, -0.18248185515403748, -0.07101717591285706, -0.0717560425400734, 0.03259908780455589, 0.07061295211315155, -0.000989394262433052, 0.09631296247243881, -0.21117684245109558, 0.038171760737895966, 0.07393535226583481, 0.060210537165403366, 0.09131471812725067, 0.13245154917240143, 0.005180996377021074, -0.06167545169591904, -0.05488356202840805, -0.10453654825687408, 0.06779250502586365, -0.07271676510572433, 0.08691044896841049], [-0.001981856767088175, 1.722182787489146e-05, 0.040485333651304245, 0.044058654457330704, 0.05969439074397087, -0.11270663887262344, -0.007750282995402813, 0.079786516726017, -0.017498277127742767, 0.05053599551320076, -0.14376400411128998, 0.03579713776707649, 0.0014504609862342477, 0.0018428191542625427, -0.09777504205703735, 0.00471861707046628, -0.08125927299261093, -0.018898410722613335, 0.04388900473713875, -0.0026925290003418922, -0.12250974774360657, 0.09429550915956497, -0.0751643255352974, 0.112730473279953, -0.12843753397464752, 0.1293163150548935, -0.12309547513723373, -0.06124825030565262, -0.12083818763494492, -0.1460363268852234, -0.1327466517686844, 0.07245336472988129, -0.1068650633096695, 0.047495242208242416, 0.16986805200576782, -0.05190964415669441, 0.06334876269102097, 0.00620586983859539, 0.011750875972211361, -0.11953333020210266, 0.09955444931983948, -0.10667939484119415, -0.026155397295951843, 0.029195070266723633, -0.12762226164340973, 5.526916356757283e-05, 0.0016343067400157452, -0.0124031538143754, 0.008323224261403084, 0.057484231889247894, -0.025979293510317802, -0.04301128908991814, -0.10308007150888443, 0.09508765488862991, -0.12471020221710205, -0.009403839707374573, -0.00777929974719882, -0.11629198491573334, -0.02955617941915989, -0.13990889489650726, -0.04995574429631233, 0.018216237425804138, 0.15143071115016937, 0.16856233775615692], [-0.043860748410224915, 0.01633111760020256, -0.008405156433582306, 0.04370024800300598, 0.15175510942935944, -0.0014303205534815788, 0.09966446459293365, -0.02877349592745304, 0.0687674805521965, 0.1810826063156128, -0.08583284169435501, 0.0041730208322405815, -0.2621319591999054, -0.0028019279707223177, 0.07737111300230026, -0.10829756408929825, -0.09890004247426987, -0.057125043123960495, 0.03456585854291916, -0.06729185581207275, -0.09468092769384384, -0.04767487570643425, -0.03154883161187172, -0.06937069445848465, 0.057901784777641296, 0.14818014204502106, -0.12111170589923859, -0.021230287849903107, 0.0644482746720314, 0.0998777374625206, -0.0964198186993599, -0.10749942809343338, -0.12053519487380981, -0.07775658369064331, -0.14569371938705444, 0.04868805781006813, -0.02702486328780651, 0.050539612770080566, 0.00690442742779851, 0.09241049736738205, -0.0018068542703986168, -0.07247385382652283, 0.07144824415445328, -0.011776052415370941, 0.009890573099255562, 0.3695997893810272, 0.0415213368833065, -0.2533643841743469, -0.08028294146060944, -0.11156017333269119, 0.07622478157281876, -0.24814189970493317, -0.03359389305114746, 0.14489543437957764, 0.1742112785577774, 0.04555579647421837, 0.11496436595916748, -0.17149841785430908, -0.07636198401451111, -0.2356809824705124, -0.031076272949576378, 0.17531754076480865, -0.016328802332282066, -0.13341400027275085], [0.025704028084874153, 0.06957663595676422, -0.0675133541226387, 0.06424365192651749, -0.04096465930342674, -0.02878430113196373, 0.03212543576955795, -0.1057167574763298, 0.047048769891262054, -0.06561478972434998, 0.00432836776599288, 0.03357662260532379, -0.1185602992773056, -0.09643189609050751, -0.027068521827459335, -0.09192238748073578, 0.03711212798953056, 0.10457167774438858, 0.008017626591026783, 0.027199411764740944, -0.06120389699935913, -0.06225654482841492, -0.12663839757442474, -0.1195586621761322, 0.052563779056072235, 0.04642985388636589, -0.05830127373337746, -0.11221645772457123, 0.06254102289676666, -0.04661119729280472, -0.11903216689825058, 0.09349266439676285, 0.015502064488828182, -0.015704168006777763, -0.08717627078294754, 0.015332551673054695, 0.053818587213754654, 0.01845693029463291, -0.10040780901908875, -0.06271906197071075, -0.10741568356752396, -0.08628860116004944, -0.1287473887205124, -0.08153187483549118, -0.050813332200050354, -0.13061532378196716, -0.05968122556805611, 0.03148121014237404, 0.07291039824485779, 0.07106344401836395, -0.13059821724891663, -0.10887964069843292, -0.10098231583833694, 0.038603756576776505, -0.13726413249969482, 0.06223543733358383, -0.05271618813276291, -0.01661384478211403, -0.07254142314195633, 0.04827558249235153, 0.0619291327893734, -0.09669432044029236, 0.06594544649124146, -0.07055110484361649], [0.14838041365146637, -0.07971847057342529, 0.1307036131620407, 0.009113970212638378, 0.06252213567495346, -0.033841997385025024, -0.098870187997818, 0.20306454598903656, 0.08264052867889404, -0.1085672378540039, -0.13133519887924194, 0.009807690046727657, 0.07571370154619217, -0.126759871840477, 0.10789451748132706, 0.14863644540309906, -0.01547856442630291, -0.019410429522395134, 0.0075191534124314785, 0.1323101669549942, 0.0077833314426243305, 0.1777721792459488, -0.007390719372779131, 0.0825950875878334, -0.13715797662734985, -0.01635533571243286, 0.11044471710920334, -0.12798334658145905, -0.06809911131858826, -0.09033478796482086, 0.009465474635362625, 0.01234075240790844, -0.08607944846153259, -0.03154296800494194, -0.026752488687634468, 0.03832396864891052, 0.16635562479496002, -0.17034663259983063, -0.026135846972465515, 0.059533823281526566, -0.14373993873596191, 0.07333114743232727, 0.037384986877441406, -0.004780457355082035, -0.10443345457315445, 0.22336921095848083, 0.015756376087665558, -0.057581666857004166, -0.0337158739566803, -0.07177647948265076, -0.19673410058021545, -0.027775246649980545, 0.06988892704248428, 0.007683522533625364, 0.06893027573823929, -0.038262542337179184, -0.0034281089901924133, 0.07032910734415054, -0.05438854917883873, 0.13140980899333954, 0.12003141641616821, -0.08020240068435669, -0.03923579677939415, 0.041842926293611526], [-0.1262519508600235, -0.07490726560354233, 0.10982826352119446, -0.18181297183036804, -0.02248314395546913, 0.06062500923871994, 0.10189945250749588, 0.018987389281392097, 0.1300639510154724, 0.15302114188671112, -0.04489164426922798, 0.003909804858267307, -0.24203482270240784, 0.12042620778083801, -0.014030923135578632, 0.09893825650215149, -0.13755902647972107, -0.09633618593215942, -0.08178795874118805, -0.13805416226387024, -0.04134736210107803, 0.056529700756073, 0.02070131152868271, -0.16057686507701874, -0.02275868132710457, 0.14081841707229614, -0.1347297728061676, -0.02285018004477024, -0.13717080652713776, 0.001064861542545259, -0.2602173089981079, -0.13702666759490967, -0.16588066518306732, -0.19463403522968292, -0.01489647664129734, 0.08596088737249374, -0.19656342267990112, 0.08799093961715698, -0.011764885857701302, 0.009985209442675114, 0.1005704328417778, -0.08086097240447998, -0.04664750397205353, 0.01970842480659485, 0.08099684864282608, 0.09947606176137924, 0.20774519443511963, -0.08507679402828217, -0.12269211560487747, -0.27341368794441223, 0.04729212448000908, -0.24022649228572845, 0.003887937404215336, 0.0628066211938858, -0.0018917140550911427, 0.1433299481868744, 0.0788569450378418, -0.28577470779418945, 0.10173910856246948, -0.00311466958373785, 0.003610435174778104, 0.1947905272245407, 0.14307665824890137, -0.138653963804245], [-0.04389850050210953, -0.08819007873535156, 0.040779951959848404, 0.07845639437437057, 0.09500183165073395, -0.000291695527266711, 0.11686854809522629, -0.2024298906326294, -0.026718880981206894, -0.2979962229728699, 0.09422677755355835, 0.15058216452598572, -0.2574758231639862, 0.03706568107008934, -0.12146659195423126, -0.20146866142749786, -0.09752050787210464, 0.1091347485780716, 0.06873340159654617, -0.09620510041713715, -0.12553247809410095, 0.0925285667181015, -0.040126070380210876, -0.15455453097820282, -0.22299328446388245, -0.04785768687725067, -0.21201282739639282, -0.004700387828052044, -0.25756746530532837, 0.04085192084312439, -0.23264095187187195, -0.05334334447979927, -0.07195211946964264, -0.1693914532661438, -1.5575460565742105e-05, 0.015169267542660236, -0.22173500061035156, -0.04314759373664856, 0.10562029480934143, -0.06669508665800095, 0.0644771158695221, 0.09270733594894409, 0.022230451926589012, -0.12510241568088531, -0.10641194134950638, 0.09796113520860672, 0.04993176832795143, -0.04708586260676384, 0.08809484541416168, -0.15942135453224182, 0.03152179718017578, -0.1000276505947113, 0.09621458500623703, 0.024319423362612724, 0.17422786355018616, 0.06661323457956314, -0.040273841470479965, -0.14826685190200806, -0.14676281809806824, 0.038125332444906235, -0.1580609381198883, -0.11060549318790436, 0.05148693546652794, -0.21948188543319702], [4.872491990681738e-05, -0.12195054441690445, 0.0008749031112529337, 0.04061431065201759, -0.01911710575222969, -0.004962654784321785, 0.00917363353073597, 0.06474382430315018, -0.10685666650533676, 0.030499344691634178, -0.035398587584495544, -0.11228789389133453, 0.0669952854514122, -0.11447712033987045, 0.13950692117214203, 0.2088300585746765, -0.020496003329753876, -0.017089959233999252, 0.09496872872114182, 0.03077615238726139, 0.1307666003704071, 0.17453646659851074, 0.032180096954107285, 0.004614958539605141, 0.07145272940397263, -0.04327746108174324, -0.042484648525714874, 0.07095595449209213, -0.12603768706321716, -0.2068391740322113, -0.10243963450193405, 0.22787441313266754, 0.014675062149763107, 0.029634732753038406, 0.12933175265789032, -0.23436127603054047, 0.06004241108894348, 0.10249020159244537, -0.007883008569478989, 0.051782332360744476, 0.011582034640014172, -0.04966835305094719, -0.11021757870912552, 0.10311783850193024, -0.02491697669029236, 0.007720733527094126, 0.03718070685863495, -0.09035464376211166, -0.05471707507967949, 0.03302301838994026, -0.09733926504850388, 0.07217704504728317, -0.07887978851795197, 0.00897180661559105, -0.12750281393527985, 0.028776654973626137, 0.1135045737028122, 0.16172190010547638, -0.10118589550256729, -0.03259919583797455, -0.14824265241622925, -0.10169879347085953, 0.13717111945152283, 0.06957553327083588], [-0.01847422868013382, -0.10324662178754807, 0.032316964119672775, 0.11534804850816727, 0.11877220124006271, -0.10724122822284698, 0.09428156912326813, 0.05831646919250488, 0.1346474438905716, -0.19805017113685608, -0.08068373799324036, -0.013809963129460812, 0.06928817182779312, -0.04608996585011482, 0.06083037704229355, 0.0037212572060525417, 0.1300891786813736, -0.05772258713841438, -0.07462872564792633, 0.019158460199832916, -0.03379938378930092, -0.07935178279876709, 0.13654331862926483, 0.19475696980953217, 0.035437699407339096, -0.11626986414194107, 0.07714181393384933, 0.09432163834571838, 0.024289121851325035, -0.20021973550319672, 0.14144381880760193, 0.17878825962543488, 0.012278983369469643, -0.02940565161406994, 0.13387086987495422, -0.2586611807346344, 0.1885090172290802, 0.022814804688096046, 0.06800936162471771, 0.142604261636734, 0.016246797516942024, 0.057195328176021576, 0.055462803691625595, -0.06924817711114883, -0.04231337085366249, 0.06886071711778641, 0.05312623083591461, 0.0050145406275987625, 0.08888949453830719, 0.04110949486494064, -0.0066361092031002045, -0.07361135631799698, 0.03416527435183525, -0.1264382302761078, -0.1553328037261963, 0.10485225915908813, -0.020705102011561394, 0.09689869731664658, 0.037411317229270935, -0.09497188776731491, -0.08766619116067886, -0.13441872596740723, -0.1026049256324768, 0.15474511682987213], [0.07459571212530136, -0.06532919406890869, 0.14446602761745453, 0.024015123024582863, 0.0016146701527759433, 0.1569671332836151, -0.05797131359577179, -0.010219103656709194, -0.04530217498540878, 0.2484472244977951, -0.008538895286619663, 0.10478603839874268, -0.0013756712432950735, -0.14786642789840698, -0.10478698462247849, -0.025545582175254822, 0.03983527794480324, 0.04378867894411087, 0.03250325098633766, 0.16045469045639038, -0.10648086667060852, -0.026496924459934235, -0.0891895666718483, 0.10993572324514389, 0.04298956319689751, 0.044379811733961105, 0.22746393084526062, 0.015333103947341442, 0.0009819562546908855, -0.018412990495562553, -0.18710142374038696, 0.09965886175632477, -0.11076254397630692, -0.06187821179628372, -0.07225872576236725, 0.02632158249616623, 0.026162758469581604, -0.13024136424064636, -0.2673141658306122, -0.17745275795459747, -0.04802223667502403, 0.08316879719495773, -0.0882095992565155, -0.1272917538881302, -0.026059962809085846, 0.1054067611694336, 0.05606123059988022, 0.11152742803096771, -0.04086959362030029, -0.12252406775951385, -0.19856354594230652, 0.1174715906381607, 0.0926850438117981, 0.05926565080881119, 0.15263135731220245, -0.07717709988355637, 0.008683855645358562, 0.130030557513237, -0.05616896227002144, -0.10204727202653885, 0.05945146828889847, -0.013462339527904987, 0.06061464548110962, 0.03487956523895264]], "fc2_bias": [-0.020161869004368782, -0.019637584686279297, 0.11377105116844177, -0.09106414020061493, -0.04894784092903137, 0.08483763039112091, 0.02455030381679535, 0.09272729605436325, -0.07449975609779358, -0.03971495106816292, -0.06234588846564293, 0.05137113109230995, -0.004559177905321121, 0.13112330436706543, 0.04716800898313522, 0.13465866446495056, 0.08577822148799896, 0.039223894476890564, 0.05583363026380539, 0.032536882907152176, -0.08659886568784714, 0.04585697874426842, -0.023416714742779732, -0.005909152328968048, -0.06478269398212433, -0.01820196770131588, 0.028000110760331154, 0.16587769985198975, -0.00585393188521266, -0.026382308453321457, 0.08964326977729797, 0.036738261580467224], "fc3_weight": [[-0.06138082221150398, 0.16254091262817383, 0.10023703426122665, -0.05130123347043991, 0.19128350913524628, -0.28972533345222473, 0.25019747018814087, -0.19391310214996338, 0.054679129272699356, -0.17736323177814484, -0.16184456646442413, 0.12229926139116287, 0.1541515737771988, 0.20772436261177063, 0.18277758359909058, -0.2430930882692337, -0.026906954124569893, -0.0802803635597229, -0.22212108969688416, -0.2899644672870636, -0.09159189462661743, -0.18457800149917603, -0.15411140024662018, -0.03530249744653702, 0.22720609605312347, 0.013886867091059685, -0.15084592998027802, 0.26839151978492737, 0.18693150579929352, -0.18326380848884583, -0.1328192502260208, -0.17969676852226257]], "fc3_bias": [0.010900894179940224]}